<?xml version="1.0"?>
<opencv_storage>
<my_svm type_id="opencv-ml-svm">
  <svm_type>C_SVC</svm_type>
  <kernel><type>RBF</type>
    <gamma>8.9999999999999997e-02</gamma></kernel>
  <C>10.</C>
  <term_criteria><epsilon>1.1920928955078125e-07</epsilon>
    <iterations>2147483647</iterations></term_criteria>
  <var_all>144</var_all>
  <var_count>144</var_count>
  <class_count>14</class_count>
  <class_labels type_id="opencv-matrix">
    <rows>1</rows>
    <cols>14</cols>
    <dt>i</dt>
    <data>
      0 1 2 3 4 5 6 7 8 9 10 11 12 13</data></class_labels>
  <sv_total>655</sv_total>
  <support_vectors>
    <_>
      2.07617730e-01 2.66796321e-01 1.95087865e-01 1.63241744e-01
      2.66796321e-01 4.37426241e-03 4.16931957e-02 1.43068388e-01
      1.59660593e-01 2.66796321e-01 1.34123698e-01 6.90989420e-02
      2.13763095e-03 2.03961253e-01 1.13952920e-01 1.85122252e-01
      2.66796321e-01 2.66796321e-01 1.21004112e-01 8.47168341e-02
      1.78911239e-02 8.71505216e-02 2.66796321e-01 5.41280918e-02
      2.66796321e-01 7.83789977e-02 1.10978633e-01 1.31885543e-01
      3.08359023e-02 1.41850844e-01 5.28665856e-02 2.66796321e-01
      7.31716901e-02 1.66588575e-01 1.19900450e-01 1.44467562e-01
      1.04084946e-01 2.07144054e-04 2.66182644e-04 2.28607864e-03
      3.30996722e-01 1.99457914e-01 2.19915375e-01 1.40944064e-01
      1.32547647e-01 5.23319934e-03 0. 0. 2.13222508e-03 3.62570256e-01
      2.58429617e-01 3.62570256e-01 4.06103991e-02 7.67745078e-03
      2.78140269e-02 8.07259511e-03 1.91173077e-01 5.98833375e-02
      3.62570256e-01 1.06449038e-01 1.78270355e-01 3.64841595e-02
      3.28056514e-02 0. 8.68262071e-03 1.72135532e-01 6.68063015e-02
      3.62570256e-01 1.19416252e-01 1.44948766e-01 1.06795058e-02
      6.11062802e-04 7.16821626e-02 0. 0. 1.07976550e-03 1.46792009e-01
      7.50090629e-02 2.67818421e-01 1.55454293e-01 1.59694061e-01
      3.67719308e-02 3.60707417e-02 2.67818421e-01 1.26783207e-01
      9.16112885e-02 1.83163285e-02 2.67818421e-01 1.39498293e-01
      9.10641849e-02 2.01152265e-01 0. 0. 2.46544630e-04 5.62381074e-02
      9.03737918e-02 2.67818421e-01 2.67818421e-01 2.67818421e-01
      1.40084058e-01 1.98348969e-01 2.67818421e-01 1.62854210e-01
      1.26390994e-01 7.67055750e-02 2.67818421e-01 2.35489756e-01
      2.67818421e-01 9.35226388e-04 4.08593491e-02 3.19175601e-01
      2.28264615e-01 2.66245455e-01 7.15869293e-03 8.36946592e-02
      2.08836626e-02 1.04695568e-02 0. 3.04376315e-02 3.19175601e-01
      2.22616956e-01 3.19175601e-01 4.13392158e-03 3.26865353e-02
      1.33963325e-03 0. 6.71563148e-02 2.70186931e-01 3.19175601e-01
      3.12973022e-01 6.98434636e-02 2.22991910e-02 9.44249034e-02
      5.03500663e-02 4.31724638e-02 2.37559527e-02 1.05805553e-01
      3.19175601e-01 2.96016842e-01 1.00152731e-01 0. 4.96998709e-03
      4.03269427e-03 1.68592087e-04</_>
    <_>
      4.95802052e-02 2.86677271e-01 2.86677271e-01 2.22315058e-01
      6.13585375e-02 0. 0. 2.57077569e-04 2.75741890e-02 2.86677271e-01
      2.86677271e-01 2.86677271e-01 9.85910296e-02 6.04996309e-02
      1.56331982e-04 1.18278716e-04 1.39857684e-05 2.23202750e-01
      3.92075852e-02 2.86677271e-01 2.86677271e-01 2.06354260e-01
      1.34740934e-01 2.03389898e-02 3.68887112e-02 9.85761173e-03
      3.75102647e-02 2.23001391e-01 2.86677271e-01 2.86677271e-01
      6.52165934e-02 1.85026620e-02 0. 9.38409567e-03 6.14969479e-03
      1.33675620e-01 2.75754899e-01 6.88113123e-02 7.52049387e-02
      8.96163099e-03 4.07265462e-02 6.63268417e-02 5.90967834e-02
      5.31253070e-02 2.75754899e-01 2.35483661e-01 1.10865210e-03
      6.54119183e-04 1.24254718e-03 1.17451608e-01 2.75754899e-01
      2.75754899e-01 9.09120291e-02 2.75754899e-01 2.75754899e-01
      1.27222493e-01 1.31592393e-01 1.66304428e-02 6.60497323e-02
      9.84198004e-02 9.28660929e-02 3.56150866e-02 2.43696436e-01
      1.03080392e-01 1.31267145e-01 1.87852755e-01 8.56757835e-02
      2.75754899e-01 2.75754899e-01 2.75754899e-01 5.32244109e-02
      1.48631975e-01 1.21815570e-01 1.55378237e-01 1.97825387e-01
      1.14532560e-01 2.05310091e-01 1.02898188e-01 2.25661442e-01
      1.24478251e-01 1.61104068e-01 2.85905749e-01 1.43028796e-01
      1.04952730e-01 1.61324870e-02 1.61284506e-02 0. 4.73649576e-02
      6.42261133e-02 2.85905749e-01 2.85905749e-01 1.80512652e-04 0.
      9.81148891e-03 2.85905749e-01 1.23980902e-01 2.85905749e-01
      1.58566833e-01 2.85905749e-01 2.85905749e-01 4.96891178e-02
      2.13804971e-02 2.67462921e-03 1.22008637e-01 0. 5.16160429e-02
      8.60450119e-02 2.85905749e-01 2.40425199e-01 2.85919905e-01
      1.52900144e-01 2.96867243e-03 2.95442771e-02 1.28765358e-02
      1.44180804e-02 6.12204094e-05 1.39188558e-01 7.72310793e-02
      2.92025894e-01 2.92025894e-01 1.23690650e-01 2.65108079e-01
      9.25500244e-02 5.87244630e-02 1.85151788e-04 5.45457900e-02
      2.92025894e-01 2.92025894e-01 1.57821462e-01 7.69502716e-04
      8.35732445e-02 0. 2.71273614e-03 2.54587689e-03 2.85463899e-01
      2.52122670e-01 2.92025894e-01 2.92025894e-01 4.53459918e-02
      5.58692962e-02 0. 6.47869892e-04 2.16507309e-04 1.14759922e-01</_>
    <_>
      2.77160555e-01 2.42389038e-01 2.77160555e-01 2.37945497e-01
      6.17272556e-02 2.27991510e-02 4.53655011e-05 0. 1.35074675e-01
      2.77160555e-01 2.77160555e-01 2.77160555e-01 3.79844904e-02
      7.21113086e-02 1.31865097e-02 3.83051150e-02 2.54635736e-02
      1.47584736e-01 2.30725139e-01 1.91309482e-01 2.77160555e-01
      1.49276689e-01 1.58803210e-01 7.31807500e-02 8.32765996e-02
      1.36249437e-05 7.82013535e-02 2.58885413e-01 2.35167831e-01
      2.77160555e-01 2.39566118e-02 2.69087423e-02 1.21881943e-02
      2.87210904e-02 9.48153064e-03 1.02063067e-01 1.90655276e-01
      2.13789955e-01 2.95488149e-01 2.12162547e-02 8.13554227e-02
      2.48719063e-02 2.72395104e-01 1.73198223e-01 1.35480076e-01
      9.57632139e-02 3.24970558e-02 4.63138334e-02 1.39845675e-02
      1.03608035e-01 1.15914308e-01 2.95488149e-01 2.95488149e-01
      2.37738192e-01 7.24026859e-02 1.01159610e-01 1.97816253e-01
      1.23208072e-02 6.88657258e-03 1.33825243e-02 1.87763348e-01
      7.85744712e-02 5.09329550e-02 8.53738934e-02 2.86540668e-02
      1.68214217e-01 5.41667715e-02 2.95488149e-01 9.49520692e-02
      2.95488149e-01 2.76840717e-01 1.75853193e-01 9.98436436e-02
      4.32188474e-02 2.28556827e-01 5.99057898e-02 2.17508480e-01
      2.77370095e-01 3.04299712e-01 3.08990311e-02 9.30211693e-02
      2.31771395e-01 3.39897722e-02 8.09544399e-02 5.32905618e-03
      4.85546775e-02 5.88362031e-02 8.54551494e-02 1.73700023e-02
      2.22094625e-01 2.03494459e-01 8.03887961e-05 2.40553942e-04 0.
      1.97461098e-01 3.04299712e-01 3.04299712e-01 1.57970145e-01
      2.73517340e-01 3.04299712e-01 1.54109846e-04 4.61155374e-04 0.
      7.53497928e-02 8.84579718e-02 9.77422595e-02 7.08809644e-02
      3.04299712e-01 1.67229638e-01 4.43610214e-02 1.05664209e-01
      6.98970305e-03 4.06409241e-03 1.43981178e-03 1.16170496e-02
      4.05974872e-03 1.51463985e-01 8.37289542e-02 1.25746101e-01
      3.14886928e-01 1.31605178e-01 3.10862720e-01 1.64661333e-02
      9.45848003e-02 4.34152745e-02 7.43553191e-02 3.14886928e-01
      1.13627389e-01 1.38469175e-01 3.98059422e-03 3.52249630e-02
      1.26282852e-02 4.45920229e-03 6.33845164e-04 3.14886928e-01
      3.14886928e-01 3.14886928e-01 3.14886928e-01 1.49145529e-01
      2.09091112e-01 4.96060699e-02 1.64124388e-02 5.14473245e-02
      2.81782568e-01</_>
    <_>
      2.55031228e-01 9.21906829e-02 2.60545820e-01 1.85633957e-01
      1.85793981e-01 9.82917612e-04 2.87164206e-04 0. 2.12150812e-01
      2.89763778e-01 1.03591457e-01 5.50593957e-02 2.82092039e-02
      1.10439502e-01 1.87830515e-02 2.82159075e-04 0. 2.89763778e-01
      1.15195327e-01 1.25890329e-01 2.89763778e-01 2.89763778e-01
      2.89763778e-01 2.27962676e-02 4.34067883e-02 0. 9.33400169e-02
      2.89763778e-01 1.50528163e-01 2.38294631e-01 7.35765174e-02
      3.66968736e-02 6.37114653e-03 1.90823209e-02 0. 2.89763778e-01
      2.80974001e-01 3.72960381e-02 3.20895910e-02 2.34184265e-02
      1.11042157e-01 5.96509092e-02 1.67766754e-02 6.01931848e-02
      2.80974001e-01 2.39830568e-01 0. 8.00671615e-03 6.39683986e-03
      7.15168640e-02 1.07639097e-01 2.80974001e-01 2.52810538e-01
      2.80974001e-01 2.80974001e-01 1.92351565e-02 8.89430474e-03
      1.35480112e-03 1.50450515e-02 3.97224128e-02 4.28048603e-04
      5.25232553e-02 2.80974001e-01 2.80974001e-01 2.92700075e-04 0.
      2.76332702e-02 1.95974067e-01 2.80974001e-01 1.88060224e-01
      2.14766055e-01 2.80974001e-01 3.76670286e-02 4.47810926e-02
      2.14225113e-01 2.39751056e-01 2.53117621e-01 1.16203487e-01
      2.61639655e-01 3.29365507e-02 5.29609844e-02 2.61639655e-01
      1.37583479e-01 2.02962458e-01 7.85262957e-02 4.34675813e-02
      2.40137596e-02 1.69064209e-01 3.90953682e-02 2.40536466e-01
      5.54942004e-02 9.07560438e-03 2.92022806e-03 3.88908572e-02
      2.61639655e-01 2.48748407e-01 2.61639655e-01 1.00168325e-01
      1.42187566e-01 2.61639655e-01 2.00105622e-01 1.32626325e-01
      1.74739212e-02 1.42276436e-01 3.09060942e-02 2.42260650e-01
      8.38765725e-02 2.61639655e-01 2.47073442e-01 1.27859950e-01
      1.13272831e-01 3.38427746e-03 2.59275902e-02 3.17587033e-02
      3.07597760e-02 5.97699396e-02 2.47073442e-01 2.17148423e-01
      9.04489011e-02 1.04122579e-01 9.09409896e-02 2.47073442e-01
      2.47073442e-01 1.86749756e-01 1.25819296e-01 2.47073442e-01
      2.47073442e-01 2.40404904e-01 1.78090438e-01 6.18050480e-03
      8.98513272e-02 1.99405421e-02 6.55065551e-02 7.98869133e-02
      2.47073442e-01 2.23349780e-01 1.70729756e-01 2.47073442e-01
      1.04800515e-01 2.47073442e-01 4.06702831e-02 1.21558256e-01
      1.06750011e-01 2.47073442e-01</_>
    <_>
      2.15564907e-01 6.78571239e-02 3.09041262e-01 1.66597366e-01
      9.29420888e-02 6.92492758e-04 5.39631990e-04 3.74546536e-04
      1.62859231e-01 3.09041262e-01 4.35815379e-02 8.48557502e-02
      1.39962425e-02 1.23623665e-02 1.31368608e-04 4.71337204e-04
      4.48828883e-04 3.09041262e-01 2.72015035e-01 4.31986228e-02
      3.09041262e-01 1.75308049e-01 3.09041262e-01 4.27758358e-02
      5.07896580e-02 4.43133414e-02 2.64687687e-01 3.09041262e-01
      2.87990775e-02 1.36309460e-01 2.24235803e-02 4.13838923e-02
      3.00254393e-03 1.11678662e-02 1.20493872e-02 3.09041262e-01
      3.22178274e-01 1.92447100e-04 6.17378158e-04 3.53692187e-04
      5.01784422e-02 3.82042639e-02 4.01667878e-02 4.29564826e-02
      3.22178274e-01 1.38963744e-01 0. 0. 4.41238470e-03 3.22178274e-01
      1.89043656e-01 2.28150174e-01 6.43641800e-02 1.98089868e-01
      3.22178274e-01 3.64362374e-02 2.33931355e-02 7.30018169e-02
      2.29428247e-01 4.54104431e-02 5.57363667e-02 2.86502540e-02
      3.22178274e-01 1.95223883e-01 5.79045974e-02 3.85802835e-02
      1.68080285e-01 3.22178274e-01 1.50170505e-01 1.13993756e-01
      4.27460372e-02 2.04058692e-01 3.12899947e-01 0. 9.31509286e-02
      4.16622683e-02 3.12899947e-01 8.87218490e-02 1.32215843e-01
      8.37016329e-02 3.12899947e-01 3.12899947e-01 8.65316324e-05
      2.98807137e-02 5.08089503e-03 2.95489691e-02 2.77974131e-03
      2.17512846e-02 2.13802196e-02 3.12899947e-01 1.60578355e-01
      2.33880128e-04 6.99856377e-04 0. 2.40040049e-01 1.60420761e-01
      3.12899947e-01 2.55574659e-02 2.40424484e-01 3.12899947e-01
      9.95463342e-04 2.97879870e-03 0. 2.06755884e-02 7.86950288e-04
      7.11676432e-03 5.96750062e-03 3.12899947e-01 3.01980495e-01
      7.72093087e-02 5.10856509e-02 8.18167031e-02 1.34689763e-01
      6.90730335e-03 9.97888763e-03 1.40370787e-04 3.01980495e-01
      3.01980495e-01 1.30784273e-01 1.30887851e-01 2.49708936e-01
      3.01980495e-01 1.82181373e-02 1.45703694e-02 4.52036620e-05
      2.00477973e-01 3.01980495e-01 2.23477781e-02 1.73629485e-02
      7.25592440e-03 3.27141806e-02 1.20607438e-03 1.96906226e-03
      1.46551884e-03 2.54471540e-01 1.87970117e-01 4.99706157e-02
      3.01980495e-01 2.69090474e-01 3.01980495e-01 1.74412341e-03
      8.00685084e-04 8.88004550e-04 1.04047172e-01</_>
    <_>
      1.78609967e-01 2.78208137e-01 2.78208137e-01 4.47351150e-02
      4.16231668e-03 0. 8.54646787e-04 8.60653061e-04 8.54353085e-02
      2.78208137e-01 2.78208137e-01 2.66054958e-01 4.09139805e-02
      1.02043408e-03 0. 2.19452675e-04 3.13159166e-04 2.78208137e-01
      2.48990178e-01 2.40627304e-01 2.78208137e-01 4.31368016e-02
      1.42311722e-01 2.24247705e-02 7.09439535e-03 6.12501972e-05
      1.04722954e-01 2.78208137e-01 1.80005178e-01 2.78208137e-01
      3.00422646e-02 8.31673946e-03 5.69800381e-03 1.89313234e-03
      2.45000701e-04 2.78208137e-01 2.81615645e-01 1.11135811e-01
      1.43759593e-01 2.22178865e-02 1.84520725e-02 2.73958687e-03
      1.15944408e-02 6.61630277e-03 2.81615645e-01 2.41974622e-01
      4.42826636e-02 9.59648415e-02 2.11608075e-02 2.17452586e-01
      5.01963682e-02 7.71198124e-02 3.73447649e-02 2.81615645e-01
      2.81615645e-01 7.47371465e-02 2.63770312e-01 8.34497064e-03
      4.17014162e-05 1.07858721e-02 4.65967953e-02 1.00150984e-02
      2.81615645e-01 2.81615645e-01 7.79374763e-02 2.81615645e-01
      1.18771978e-02 2.81615645e-01 4.55146022e-02 1.85940534e-01
      3.98230664e-02 2.81615645e-01 1.10841043e-01 7.86820799e-02
      2.58002549e-01 1.29135214e-02 2.58002549e-01 1.16018221e-01
      1.87388778e-01 6.10155202e-02 7.31772408e-02 2.40676627e-01
      2.44357541e-01 2.58002549e-01 2.33582463e-02 8.84609669e-03
      2.59343944e-02 6.06164709e-02 2.83167828e-02 1.72867373e-01
      1.45267561e-01 5.17238937e-02 5.05977981e-02 8.10865313e-03
      2.58002549e-01 2.12550938e-01 2.58002549e-01 2.03267977e-01
      1.49118125e-01 2.58002549e-01 2.58002549e-01 2.58002549e-01
      6.27309754e-02 1.04220740e-01 2.41053682e-02 9.60807279e-02
      9.48711261e-02 2.58002549e-01 2.33155936e-01 2.23125681e-01
      2.76796222e-01 2.64574960e-02 1.34009941e-04 3.17556388e-03
      1.20028947e-02 1.38041435e-03 1.52371168e-01 1.97556928e-01
      1.97386771e-01 2.76796222e-01 4.45613302e-02 1.63718149e-01
      1.16222156e-02 4.69826683e-02 4.51091444e-03 1.27852783e-01
      2.76796222e-01 2.76796222e-01 2.76796222e-01 5.63128181e-02
      3.80879827e-02 1.40305070e-04 6.85928389e-05 1.68456856e-04
      2.36998916e-01 2.76796222e-01 2.76796222e-01 2.76796222e-01
      7.11587444e-02 5.25936298e-03 3.50762675e-05 1.71482061e-05 0.
      2.54390836e-01</_>
    <_>
      1.68234363e-01 6.51236624e-02 2.75728315e-01 1.39641196e-01
      2.75728315e-01 1.18588600e-02 1.01698510e-01 1.62777621e-02
      1.25612080e-01 2.75728315e-01 2.82019898e-02 1.01865038e-01
      2.96301059e-02 7.15995207e-02 6.79935589e-02 2.75728315e-01
      1.20280199e-01 2.75728315e-01 7.95947015e-02 2.11825911e-02
      1.92691296e-01 9.26147699e-02 2.75728315e-01 1.15631513e-01
      2.75728315e-01 1.23229742e-01 8.50696489e-02 2.06823692e-01
      8.62860680e-03 6.89566657e-02 2.68318150e-02 3.54812481e-02
      1.33381188e-01 2.75728315e-01 2.06188187e-01 2.75728315e-01
      2.01388925e-01 6.11315772e-05 1.82928285e-04 1.75206328e-03
      4.66918945e-02 7.37034455e-02 2.54636973e-01 1.80138737e-01
      2.54636973e-01 2.37027556e-01 1.74463174e-04 5.22058341e-04
      1.14642631e-03 4.62276712e-02 8.89496803e-02 2.54636973e-01
      2.54636973e-01 2.54636973e-01 2.08992407e-01 3.55676073e-03
      9.46331862e-03 7.88933691e-03 3.22636627e-02 1.14662021e-01
      2.54636973e-01 1.48434892e-01 2.54636973e-01 1.71490595e-01
      1.35284234e-02 3.49956341e-02 2.70151030e-02 2.54636973e-01
      1.97611645e-01 2.54636973e-01 2.27022573e-01 2.54636973e-01
      1.04322322e-01 1.57227943e-04 4.70484170e-04 8.48689675e-03
      9.59233642e-02 9.51462686e-02 2.79168785e-01 1.59509555e-01
      1.47941038e-01 1.85515344e-01 1.88179387e-04 5.63103240e-04
      2.50031101e-03 1.55652743e-02 1.06611744e-01 2.79168785e-01
      2.32488975e-01 2.79168785e-01 1.96592852e-01 9.29547314e-05
      2.78154912e-04 0. 1.79891791e-02 1.08763278e-01 2.79168785e-01
      2.35228196e-01 2.77288437e-01 2.79168785e-01 2.32386774e-05
      6.95387207e-05 0. 1.38379484e-02 1.32599130e-01 2.79168785e-01
      2.72479981e-01 2.79168785e-01 2.92888254e-01 1.30973905e-02
      3.45383473e-02 1.15947910e-02 3.91275734e-02 8.35740119e-02
      1.84039474e-01 9.57340598e-02 2.92888254e-01 2.92888254e-01
      5.24329767e-02 1.36245340e-01 4.98175584e-02 2.92888254e-01
      1.27692208e-01 4.63935062e-02 7.50037879e-02 2.73144275e-01
      2.92888254e-01 8.61935131e-03 2.26896927e-02 3.74561758e-03
      5.45594320e-02 3.41707952e-02 1.65366784e-01 8.30875933e-02
      2.92888254e-01 2.92888254e-01 3.48191969e-02 9.07587558e-02
      1.96558163e-02 2.92888254e-01 1.05338241e-03 0. 2.55488697e-02
      2.92888254e-01</_>
    <_>
      2.60814220e-01 5.61535060e-02 1.77526295e-01 5.34597076e-02
      2.63834652e-02 1.23380695e-03 0. 1.63493154e-04 2.60814220e-01
      2.60814220e-01 2.60814220e-01 2.06180617e-01 1.17857307e-01
      2.21870355e-02 9.04201181e-04 0. 6.53972384e-04 2.60814220e-01
      2.60814220e-01 7.59670436e-02 2.60814220e-01 1.14840537e-01
      2.19117314e-01 1.87666751e-02 1.21182413e-03 3.67235800e-04
      2.60814220e-01 2.60814220e-01 2.60814220e-01 2.54694819e-01
      1.46526769e-01 1.80427711e-02 4.29583294e-03 9.72704904e-04
      6.59799960e-04 2.60814220e-01 2.12655142e-01 2.77810633e-01
      2.60915667e-01 1.26087844e-01 7.68223777e-02 5.30399457e-02
      1.22143060e-01 5.16955592e-02 1.77383631e-01 9.55958441e-02
      5.61359078e-02 8.02450255e-02 3.76047827e-02 2.00145796e-01
      2.41205364e-01 2.84916997e-01 1.59188598e-01 1.04645140e-01
      1.77169412e-01 2.84916997e-01 1.89666778e-01 1.51098356e-01
      4.37922962e-02 7.39096329e-02 9.90852118e-02 3.85929085e-02
      1.30773947e-01 9.96757895e-02 1.14030004e-01 7.22054169e-02
      1.30659267e-01 2.84916997e-01 2.56801635e-01 2.84916997e-01
      9.70817432e-02 8.39248598e-02 3.11162204e-01 2.63965037e-02
      2.62976915e-01 1.17726214e-01 2.64462858e-01 1.09347798e-01
      2.64139920e-02 2.08248122e-04 3.11162204e-01 3.11162204e-01
      1.02013819e-01 1.06218249e-01 5.11224046e-02 3.05435136e-02
      1.59557201e-02 1.75015570e-03 1.80489777e-04 3.11162204e-01
      3.11162204e-01 1.96190158e-04 8.77602547e-02 2.44733915e-02
      8.49080607e-02 1.07888907e-01 3.55874486e-02 0. 3.11162204e-01
      3.11162204e-01 2.13029087e-02 2.63677929e-02 9.48684849e-03
      2.73377020e-02 1.04920026e-02 8.06707947e-04 0. 3.11162204e-01
      2.36995161e-01 1.71375647e-01 1.25386700e-01 1.03652850e-01
      2.96896026e-02 1.51776969e-02 9.92259569e-03 1.81448332e-03
      1.97224379e-01 1.53898656e-01 2.61819839e-01 2.54169673e-01
      2.07875058e-01 2.77472585e-01 5.35680577e-02 3.77814770e-02
      7.10718008e-03 1.04136132e-01 2.77472585e-01 1.77772239e-01
      1.47065848e-01 7.09837750e-02 8.23332742e-02 1.05226901e-03 0. 0.
      2.77472585e-01 2.33607665e-01 2.77472585e-01 2.77472585e-01
      2.59368032e-01 1.95167810e-01 1.57840375e-03 7.45036887e-05
      2.48978231e-05 1.41178519e-01</_>
    <_>
      2.46202081e-01 7.17261508e-02 1.64361000e-01 8.43617171e-02
      1.39982179e-01 3.56968306e-02 3.02704307e-03 2.48768255e-02
      2.07025573e-01 2.52151102e-01 1.14148716e-02 1.06468173e-02
      8.22818780e-04 5.16190454e-02 9.52652190e-03 1.85197741e-01
      2.61742383e-01 2.61742383e-01 2.61742383e-01 7.66417012e-02
      6.73130453e-02 4.99242395e-02 1.97863698e-01 2.09323063e-01
      2.61742383e-01 1.31613493e-01 2.61742383e-01 2.61742383e-01
      1.68344341e-02 1.57205127e-02 0. 4.36058408e-03 4.40528877e-02
      2.61742383e-01 2.61742383e-01 2.61742383e-01 2.15728283e-01 0. 0.
      6.39821956e-05 2.02400722e-02 7.92621356e-03 1.52037561e-01
      2.52604842e-01 2.52604842e-01 2.52604842e-01 0. 0. 1.02910993e-03
      1.76879480e-01 1.61864728e-01 2.21177429e-01 1.74133822e-01
      2.52604842e-01 2.47998491e-01 1.50051033e-02 8.77745077e-03
      2.14188378e-02 8.60273317e-02 1.13601826e-01 1.64129391e-01
      2.52604842e-01 2.52604842e-01 2.07120687e-01 2.26315167e-02
      1.35368211e-02 5.45058362e-02 2.52604842e-01 2.52604842e-01
      1.75456569e-01 1.71690151e-01 2.52604842e-01 1.77556217e-01
      9.26553272e-03 8.73529259e-03 6.20876811e-03 5.46913967e-02
      9.84479338e-02 2.54368007e-01 1.55431613e-01 2.16784388e-01
      2.66705692e-01 2.30632117e-03 2.15371372e-03 2.16969941e-03
      3.43425968e-03 1.77694634e-02 2.72921264e-01 2.81233281e-01
      2.81233281e-01 2.81233281e-01 6.03719673e-05 1.80655945e-04
      8.13637569e-04 1.62383961e-03 1.12304958e-02 9.49612483e-02
      1.61663398e-01 2.81233281e-01 2.81233281e-01 0. 0. 3.25454935e-03
      5.41375801e-02 1.03969232e-03 2.81233281e-01 2.81233281e-01
      2.81233281e-01 2.52502441e-01 6.40660748e-02 3.49823721e-02
      5.24129458e-02 1.19188748e-01 8.04253742e-02 1.59943640e-01
      2.52502441e-01 2.52502441e-01 2.26001829e-01 1.06857546e-01
      6.02064580e-02 1.71727017e-01 2.52502441e-01 1.68720439e-01
      2.56009307e-02 8.13333020e-02 2.06953734e-01 2.52502441e-01
      4.62636389e-02 2.33215783e-02 2.41136886e-02 1.23689257e-01
      2.61363713e-03 1.70167238e-01 2.52502441e-01 2.52502441e-01
      2.24123567e-01 1.22872263e-01 2.52502441e-01 2.30130255e-01
      2.52502441e-01 3.32192332e-03 4.30352706e-03 2.60232352e-02
      1.69193059e-01</_>
    <_>
      2.35555276e-01 1.89508811e-01 2.35555276e-01 1.11693636e-01
      1.30775601e-01 6.21449144e-04 1.91834435e-04 6.41077058e-05
      1.91440374e-01 2.35555276e-01 2.35555276e-01 2.35555276e-01
      1.87561825e-01 2.23697022e-01 0. 0. 0. 2.35555276e-01
      1.82737485e-01 1.82790905e-01 2.29739666e-01 2.35555276e-01
      2.35555276e-01 2.60076346e-03 4.56372276e-02 1.01502882e-02
      1.38024554e-01 2.35555276e-01 1.90377906e-01 1.49686441e-01
      2.19686285e-01 1.71656042e-01 3.09240218e-04 1.70279332e-02
      2.57359864e-03 1.82770148e-01 3.13241035e-01 1.13583952e-01
      1.07600883e-01 1.03732519e-01 1.23133823e-01 0. 5.99689301e-05
      2.00406157e-05 3.13241035e-01 3.13241035e-01 1.13015960e-03
      2.30381358e-02 4.80439886e-02 3.13241035e-01 1.18305676e-01
      7.98960477e-02 1.44336268e-01 3.13241035e-01 1.88744634e-01
      1.19577542e-01 1.81322306e-01 6.97045177e-02 8.35966840e-02 0.
      2.63708149e-04 8.81268643e-05 1.40592039e-01 1.16969034e-01
      1.95265383e-01 3.13241035e-01 1.72632232e-01 3.13241035e-01
      8.13178867e-02 2.11403240e-02 3.64738293e-02 1.05638325e-01
      7.87904412e-02 6.33705705e-02 1.36145517e-01 1.26207262e-01
      2.72392839e-01 5.02646761e-03 2.72392839e-01 7.70004764e-02
      6.06922023e-02 2.72392839e-01 1.43282533e-01 1.47612989e-01
      5.39625399e-02 5.99161573e-02 1.15820824e-03 1.57506689e-01
      3.27980146e-02 1.81692317e-01 2.63290077e-01 1.95863489e-02
      4.36916687e-02 1.16473893e-02 2.36872762e-01 2.08570957e-02
      2.72392839e-01 1.11687392e-01 2.72392839e-01 2.72392839e-01
      1.67106912e-01 2.51894206e-01 4.72319778e-03 1.58826470e-01
      4.67643514e-03 2.36728445e-01 4.89391945e-02 2.72392839e-01
      1.99247554e-01 2.44776383e-01 2.87014902e-01 4.48723510e-03
      5.88873215e-03 6.76905474e-05 1.53688845e-04 4.03012127e-05
      1.22486345e-01 9.69933048e-02 2.97729105e-01 3.07363480e-01
      4.70951051e-02 8.86516348e-02 1.04658154e-03 6.79666584e-04
      1.82896823e-04 6.38565049e-02 3.07363480e-01 2.46792495e-01
      2.82354087e-01 7.05559878e-03 4.84644994e-02 9.59410332e-04
      1.74395929e-04 1.40440816e-05 3.07363480e-01 1.95999876e-01
      3.07363480e-01 3.07363480e-01 3.22270766e-02 2.47558113e-03
      1.08304818e-03 6.08748698e-04 2.64891169e-05 1.81158468e-01</_>
    <_>
      2.26775244e-01 2.96943277e-01 3.16667855e-01 1.92235351e-01
      1.83895782e-01 2.52756872e-04 7.09511398e-04 3.37218109e-04
      1.91488490e-01 3.16667855e-01 1.51166633e-01 2.04911917e-01
      5.07916249e-02 1.62461437e-02 7.14093000e-02 2.15738684e-01
      2.84922421e-01 3.16667855e-01 2.98161898e-02 4.28769179e-02
      3.16667855e-01 9.25138667e-02 3.16667855e-01 3.14058550e-02
      4.23588902e-02 1.63519550e-02 6.56777173e-02 1.07011937e-01
      1.62707213e-02 6.51765391e-02 1.01085911e-02 2.19882503e-02
      1.17047830e-02 4.76553775e-02 3.06546092e-02 9.66843441e-02
      2.17720672e-01 1.12916738e-01 6.89395443e-02 3.14472429e-02
      1.26227867e-02 6.77544400e-02 2.41267532e-01 2.21339136e-01
      2.32854709e-01 1.82111114e-01 8.14695731e-02 1.09125756e-01
      2.29448825e-02 3.02589506e-01 2.27651656e-01 3.02589506e-01
      1.35947645e-01 1.80969238e-01 1.34369373e-01 3.23546305e-02
      2.25741528e-02 9.71913245e-03 1.16531573e-01 1.30122993e-02
      6.51586130e-02 3.52030434e-02 1.14021130e-01 1.32762477e-01
      5.88154569e-02 3.02589506e-01 2.19867423e-01 3.02589506e-01
      1.42658383e-01 2.89853483e-01 3.60105932e-02 1.27844840e-01
      3.71115021e-02 1.60609896e-03 2.77411826e-02 2.21437104e-02
      2.77385056e-01 6.01449758e-02 2.77385056e-01 7.77496472e-02
      1.58601195e-01 1.01272561e-01 3.61449309e-02 2.60979921e-01
      3.34422141e-02 2.88402550e-02 1.77862775e-02 1.34213790e-01
      1.71172880e-02 7.56929144e-02 1.69902474e-01 4.80770506e-02
      3.45919393e-02 1.28702251e-02 1.69523388e-01 1.51089117e-01
      2.77385056e-01 2.77385056e-01 2.77385056e-01 1.91943794e-01
      2.77385056e-01 2.77385056e-01 1.48474112e-01 1.24065742e-01
      8.56071264e-02 2.77385056e-01 2.12727502e-01 1.65193558e-01
      2.25733459e-01 4.03331928e-02 1.95549130e-01 2.82848086e-02
      6.99797794e-02 1.66628091e-03 2.91366177e-03 3.31716146e-04
      1.64164007e-01 2.40837440e-01 5.73650301e-02 2.80438125e-01
      1.61447361e-01 2.80438125e-01 1.56863816e-02 2.61561818e-05
      7.10914392e-05 1.86166167e-01 2.80438125e-01 1.61740735e-01
      2.80438125e-01 9.91511270e-02 9.39540640e-02 4.87777544e-03
      1.14067197e-02 1.67612229e-02 2.27258638e-01 2.80438125e-01
      2.10830063e-01 2.80438125e-01 1.55519485e-01 2.30217770e-01
      3.07722669e-03 0. 0. 2.47055799e-01</_>
    <_>
      1.67307749e-01 1.10296637e-01 1.54214785e-01 7.88959786e-02
      1.04681559e-01 4.20568548e-02 1.64782271e-01 2.29568794e-01
      2.01854154e-01 1.04816139e-01 2.18921877e-03 3.11864689e-02
      6.14921190e-02 2.95588464e-01 2.95588464e-01 2.95588464e-01
      2.95588464e-01 1.61591500e-01 4.48806696e-02 2.11186078e-03
      3.30550671e-02 4.15710732e-02 2.13977084e-01 5.95145263e-02
      2.27167770e-01 9.87610817e-02 9.96997207e-02 4.17336747e-02
      4.99316549e-04 9.65539180e-03 6.32680282e-02 2.95588464e-01
      2.95588464e-01 2.95588464e-01 7.78144598e-02 5.22556603e-02
      1.38726868e-02 5.98975411e-03 8.27339590e-02 1.18711539e-01
      3.53810608e-01 2.69228458e-01 3.53810608e-01 6.76317960e-02
      2.30007768e-02 0. 3.98335094e-03 5.29190786e-02 5.99596538e-02
      2.85936624e-01 7.90581256e-02 1.02576546e-01 4.53111716e-03 0.
      4.00111778e-03 5.89090378e-05 1.31518999e-02 6.56013861e-02
      3.53810608e-01 3.53810608e-01 3.53810608e-01 2.54060291e-02
      5.96030196e-03 0. 0. 5.33914939e-03 2.29398832e-02 3.53810608e-01
      1.08863227e-01 1.55019358e-01 6.79667620e-03 0. 6.27692491e-02
      1.52883399e-02 1.18036685e-03 2.62761395e-02 8.64536762e-02
      1.01011083e-01 2.64233589e-01 1.95685193e-01 2.07817689e-01
      5.53748347e-02 3.14051472e-02 1.53969482e-01 1.70135528e-01
      2.64233589e-01 8.20522904e-02 9.05500129e-02 9.54668447e-02
      1.66678548e-01 7.04761818e-02 6.08386882e-02 2.79176980e-03
      3.36059853e-02 9.55223516e-02 2.19419912e-01 2.64233589e-01
      2.64233589e-01 2.64233589e-01 1.20932952e-01 1.47561699e-01
      2.64233589e-01 2.04824880e-01 2.64233589e-01 5.97364791e-02
      1.91377163e-01 2.01559752e-01 2.64233589e-01 7.39094382e-03
      2.16075685e-02 2.51511306e-01 2.38482043e-01 3.55524480e-01
      9.22866985e-02 6.30677640e-02 1.57873258e-02 2.74571422e-02 0. 0.
      1.04674265e-01 8.62727240e-02 3.55524480e-01 2.53380295e-02
      2.62945034e-02 9.70092602e-04 0. 3.24000716e-02 1.25536457e-01
      3.55524480e-01 3.55524480e-01 3.55524480e-01 3.73106077e-02
      6.01208359e-02 2.53267866e-02 8.68394598e-02 0. 9.79526434e-03
      2.57574826e-01 1.60471916e-01 2.97261715e-01 4.48945723e-03 0. 0.
      0.</_>
    <_>
      3.24501872e-01 1.74974591e-01 1.78351626e-01 1.27105698e-01
      2.96228111e-01 3.45430657e-04 5.84176159e-05 1.95221928e-05
      2.90194780e-01 3.24501872e-01 5.19607700e-02 8.25506169e-03
      1.58516020e-02 1.15414277e-01 0. 7.36473536e-04 2.79307980e-02
      3.24501872e-01 1.89395025e-01 6.80283532e-02 6.10707700e-02
      1.10526457e-01 3.24501872e-01 2.55423822e-02 1.31214308e-02 0.
      1.73759773e-01 3.24501872e-01 1.88262425e-02 1.26644848e-02
      2.35933829e-02 9.32790190e-02 6.17109518e-03 3.34436749e-03
      3.01124994e-04 3.24501872e-01 2.88704872e-01 2.99119260e-02
      1.72303087e-04 5.17269073e-04 6.98569790e-02 1.33956037e-02
      1.32147809e-02 7.90388659e-02 2.88704872e-01 2.88704872e-01
      4.51094918e-02 2.81167395e-05 6.15306373e-04 1.01536050e-01
      1.57126859e-01 2.84382492e-01 2.35295922e-01 2.88704872e-01
      2.88704872e-01 3.25690233e-03 7.56753143e-04 1.77513494e-03
      8.85586161e-03 2.02668887e-02 1.92566141e-02 2.43581384e-02
      2.88704872e-01 1.98794112e-01 3.70405684e-03 1.72220133e-02
      4.08851951e-02 2.88704872e-01 2.20161065e-01 2.88704872e-01
      9.96266007e-02 2.08083287e-01 1.91467330e-01 0. 7.89310690e-03
      2.21013073e-02 3.07577968e-01 1.03487976e-01 6.61760271e-02
      7.65723586e-02 2.16610119e-01 3.07577968e-01 2.28698365e-03
      2.94212089e-03 4.05961415e-03 7.07544237e-02 2.12509092e-02
      1.17608896e-02 1.93591639e-02 3.07577968e-01 2.88726658e-01 0.
      2.85056944e-04 5.91354398e-03 3.07577968e-01 1.57087937e-01
      3.07577968e-01 1.37722269e-01 3.07577968e-01 3.07577968e-01
      4.45654005e-04 2.90635158e-04 8.77306156e-05 2.84775421e-02
      1.39355045e-02 9.26441513e-03 2.95872949e-02 3.07577968e-01
      2.95785904e-01 2.69241445e-03 5.16403292e-04 9.38484096e-04
      3.72978649e-03 3.56016099e-03 3.07692890e-03 7.53361906e-04
      2.95785904e-01 2.95785904e-01 1.05482727e-01 5.86169772e-02
      1.22973174e-01 2.95785904e-01 7.77513087e-02 1.18779607e-01
      2.24148133e-03 2.95785904e-01 2.95785904e-01 6.69827976e-04
      5.35298372e-04 1.17063384e-04 1.61157246e-03 1.82252610e-04
      7.48614315e-04 2.20398593e-04 2.95785904e-01 2.95785904e-01
      1.74613699e-01 1.59896910e-01 1.27282798e-01 2.95785904e-01
      7.42863107e-04 5.94001904e-05 0. 2.95785904e-01</_>
    <_>
      4.53606248e-02 8.95706490e-02 2.14092195e-01 1.79130569e-01
      2.15035975e-01 1.02460034e-01 2.53066272e-01 1.18481398e-01
      6.94688633e-02 6.99287355e-02 2.23926604e-02 1.43836588e-02
      2.73111444e-02 1.83988661e-01 2.42526144e-01 2.53066272e-01
      2.08437622e-01 2.06087336e-01 4.73684445e-02 0. 9.88614410e-02
      6.74948916e-02 2.53066272e-01 2.53066272e-01 2.53066272e-01
      5.80418780e-02 7.43951872e-02 1.08080871e-01 1.24443835e-02
      1.23961821e-01 1.17743686e-01 2.53066272e-01 2.35538751e-01
      2.53066272e-01 1.48748532e-01 2.37668797e-01 2.90090907e-02 0. 0.
      2.77587157e-02 2.92491019e-01 2.92491019e-01 2.92491019e-01
      5.76264746e-02 9.44448560e-02 1.55869545e-03 2.31815808e-04
      6.93680602e-04 1.71982050e-02 2.92491019e-01 2.03685537e-01
      2.13878617e-01 1.15168456e-03 1.55869545e-03 3.59293558e-02
      8.53403658e-03 1.50602028e-01 1.50989741e-01 2.92491019e-01
      2.92491019e-01 2.92491019e-01 5.63425086e-02 9.19730812e-02
      1.23048411e-03 2.54990970e-04 3.17651667e-02 3.51005010e-02
      2.92491019e-01 2.92491019e-01 2.54971951e-01 4.18530486e-04
      1.23048411e-03 1.32971480e-01 0. 2.03732925e-04 6.55484805e-03
      8.71656388e-02 2.64582783e-01 2.64582783e-01 8.07214156e-02
      1.79750949e-01 2.64582783e-01 4.48767878e-02 2.09624335e-01
      1.43134385e-01 2.64582783e-01 9.25182775e-02 1.61526397e-01
      4.98802625e-02 2.64582783e-01 1.35934532e-01 2.03039701e-04
      6.07572263e-04 9.08254925e-03 2.64582783e-01 2.64582783e-01
      2.64582783e-01 4.53410819e-02 1.95598409e-01 2.64582783e-01
      3.09423972e-02 1.20332941e-01 6.43623024e-02 2.13047579e-01
      7.68053439e-03 7.07938820e-02 2.58652177e-02 2.64582783e-01
      1.08176634e-01 3.05786412e-02 2.00942025e-01 2.12282583e-01
      3.46557558e-01 1.22836679e-01 7.44144097e-02 4.82852198e-03
      7.41245002e-02 9.64108272e-04 8.28861157e-05 2.67030466e-02
      8.37612823e-02 3.46557558e-01 1.12872817e-01 5.84426261e-02
      1.16084928e-04 9.64108272e-04 1.38390616e-01 2.11477354e-02
      2.50940353e-01 3.37966293e-01 3.46557558e-01 1.57385576e-03
      6.33310876e-04 2.11641454e-04 8.17768648e-02 1.44146697e-03
      2.01691306e-04 2.10757628e-01 3.46557558e-01 3.46557558e-01
      3.45058367e-03 7.11561705e-04 2.90212265e-05 1.44146697e-03</_>
    <_>
      1.66880742e-01 8.21286589e-02 1.29364088e-01 2.65306205e-01
      1.73491508e-01 1.72955155e-01 1.45008028e-01 8.51763412e-02
      1.27090454e-01 1.15444794e-01 2.11399719e-02 7.93674402e-03
      1.61767788e-02 1.61165088e-01 2.65306205e-01 2.65306205e-01
      2.65306205e-01 1.07826136e-01 3.33554074e-02 0. 3.02184708e-02
      9.87969190e-02 2.65306205e-01 2.65306205e-01 2.65306205e-01
      3.96202169e-02 3.42722014e-02 3.69264521e-02 2.78096180e-02
      3.98733579e-02 6.24025501e-02 2.63245195e-01 2.65306205e-01
      2.65306205e-01 2.50214934e-01 4.82559539e-02 3.70171405e-02
      1.92390021e-03 0. 1.74701295e-03 2.31582716e-01 3.08899671e-01
      3.08899671e-01 2.08854944e-01 2.72011738e-02 2.63704974e-02
      5.36980049e-04 1.67588485e-04 1.93224184e-03 2.98502654e-01
      3.08899671e-01 1.72734961e-01 2.15172824e-02 1.86549481e-02
      1.19227879e-02 1.54818408e-02 4.27501313e-02 9.48406234e-02
      3.08899671e-01 3.08899671e-01 2.48747841e-01 1.23435229e-01
      1.46492524e-02 1.58826506e-03 4.89525730e-04 1.11009162e-02
      5.73733002e-02 3.08899671e-01 3.08899671e-01 1.31092608e-01
      5.24406321e-03 5.61001885e-04 3.20828147e-02 0. 1.12740404e-03
      1.24336174e-02 1.18807949e-01 2.17875808e-01 2.74160445e-01
      1.94889352e-01 6.93719983e-02 9.34316441e-02 2.10252106e-01
      1.12090796e-01 8.37585852e-02 1.25990540e-01 1.39160767e-01
      2.45134711e-01 1.76430091e-01 8.73057172e-02 7.63429627e-02
      4.37894836e-04 1.69110612e-03 1.75474975e-02 7.20930025e-02
      7.03430846e-02 2.74160445e-01 2.74160445e-01 2.02646568e-01
      1.99826971e-01 2.74160445e-01 1.52787417e-01 4.57951464e-02
      2.64413714e-01 2.50814147e-02 2.74160445e-01 2.74160445e-01
      2.02115059e-01 3.45424190e-02 1.61867812e-01 1.88185796e-01
      2.44946912e-01 2.96543568e-01 1.48738220e-01 6.13515824e-02
      2.26983447e-02 2.34496351e-02 6.67226443e-04 1.15222456e-02
      9.11041796e-02 2.19371259e-01 2.96543568e-01 7.76386261e-02
      2.82128230e-02 9.75886287e-05 6.79725956e-04 8.69187936e-02
      2.96543568e-01 2.96543568e-01 2.96139687e-01 2.96543568e-01
      2.06352584e-03 2.07807738e-02 3.03770453e-02 4.73937318e-02
      1.71128754e-02 1.62161529e-01 2.06868917e-01 2.96543568e-01
      2.96543568e-01 1.79608422e-03 3.64049367e-04 3.62949562e-04
      9.14809108e-03</_>
    <_>
      2.80172020e-01 1.14278741e-01 2.10112989e-01 2.88656168e-02
      3.26284543e-02 1.19374110e-03 4.61527437e-04 1.54234353e-04
      2.80172020e-01 2.80172020e-01 1.90735877e-01 1.96909741e-01
      2.01927889e-02 3.10972463e-02 1.43845173e-04 1.15381859e-04
      3.85585881e-05 2.80172020e-01 1.71769932e-01 1.33036792e-01
      2.80172020e-01 2.03819469e-01 1.90616652e-01 2.26603858e-02
      1.36078922e-02 2.28395574e-02 1.46625549e-01 2.80172020e-01
      2.80172020e-01 2.80172020e-01 7.97479823e-02 2.45208237e-02
      5.11795934e-03 8.94372538e-03 1.51835289e-02 2.80172020e-01
      2.48276636e-01 1.50199980e-01 2.15029046e-01 2.96907201e-02
      5.13314381e-02 2.18386576e-02 5.36888652e-03 4.02336409e-05
      1.43599525e-01 1.94668531e-01 6.80084378e-02 1.07592404e-01
      3.81407030e-02 2.48276636e-01 1.73845753e-01 2.23173141e-01
      3.47905420e-02 1.56759739e-01 2.48276636e-01 2.48276636e-01
      2.48276636e-01 1.42832920e-01 2.68030688e-02 4.96338271e-02
      7.87273981e-03 0. 2.48276636e-01 2.48276636e-01 2.25336507e-01
      2.48276636e-01 2.48276636e-01 2.48276636e-01 1.58140853e-01
      4.24474441e-02 1.01335654e-02 1.58006370e-01 1.57517999e-01
      4.60589565e-02 1.65792465e-01 1.80323973e-01 2.65578300e-01
      8.12493414e-02 8.29628929e-02 9.21084806e-02 1.82365954e-01
      2.65578300e-01 2.65578300e-01 2.40910456e-01 9.18071344e-02
      3.67645733e-02 1.71220414e-02 2.92182472e-02 5.37421778e-02
      2.65578300e-01 1.87987328e-01 1.43257780e-02 1.16275325e-02
      2.89557036e-02 2.65578300e-01 2.31254786e-01 1.48649409e-01
      1.80638626e-01 2.45287299e-01 2.65578300e-01 2.30868593e-01
      1.37251496e-01 1.95766427e-02 9.60851982e-02 1.16289761e-02
      1.94788296e-02 4.94866744e-02 2.65578300e-01 2.79437155e-01
      2.79437155e-01 1.84509605e-01 1.14962138e-01 1.44115360e-02
      1.29156802e-02 1.13013200e-03 0. 1.97005913e-01 2.23892748e-01
      2.19577760e-01 1.20605096e-01 2.79437155e-01 1.06868394e-01
      2.92112473e-02 4.74186707e-03 7.39681782e-05 1.30649656e-01
      2.79437155e-01 2.79437155e-01 2.22718671e-01 8.49841069e-03
      1.73609983e-02 1.27823430e-03 0. 0. 2.59882569e-01 2.79437155e-01
      2.79437155e-01 1.57066718e-01 3.87102365e-02 1.17653199e-02
      8.52156139e-04 3.32010241e-04 1.10952278e-04 2.79437155e-01</_>
    <_>
      2.62495697e-01 2.62495697e-01 2.62495697e-01 8.56218785e-02
      2.74100434e-02 9.59199679e-05 4.68936923e-05 9.81928533e-05
      1.50097743e-01 2.62495697e-01 2.62495697e-01 2.62495697e-01
      8.14495385e-02 6.71217367e-02 6.40162826e-03 3.43069732e-02
      4.38319184e-02 2.51222312e-01 1.78929582e-01 2.44598895e-01
      2.62495697e-01 2.62495697e-01 2.21238434e-01 2.12466754e-02
      4.87102717e-02 8.93069548e-04 8.51552114e-02 1.56340078e-01
      2.54053056e-01 2.62495697e-01 1.02335095e-01 7.26996586e-02
      1.34531474e-02 3.81481573e-02 1.84377842e-02 1.07942268e-01
      1.03330337e-01 1.39581338e-01 2.08904326e-01 3.22386771e-02
      6.43700883e-02 7.34219924e-02 3.27182502e-01 1.57449335e-01
      2.32086316e-01 6.11383356e-02 0. 0. 0. 7.68643171e-02
      2.16121405e-01 3.27182502e-01 3.27182502e-01 1.00569881e-01
      2.14881860e-02 5.48685230e-02 1.62840679e-01 2.96946373e-02
      1.11112781e-02 7.44378418e-02 3.27182502e-01 5.71230426e-02
      6.00390434e-02 5.38913533e-02 5.87200560e-03 1.16969518e-01
      1.31178439e-01 1.97660610e-01 3.27182502e-01 3.27182502e-01
      6.70273304e-02 6.44084737e-02 6.23939000e-02 5.73498160e-02
      8.73765051e-02 2.62106180e-01 2.30964422e-01 1.28069788e-01
      3.36399734e-01 6.44297302e-02 7.99457505e-02 1.92574531e-01
      6.09303080e-02 4.33372520e-02 5.25574461e-02 5.96489944e-02
      2.57519968e-02 1.51487738e-01 6.87205419e-02 2.12230533e-01
      1.28465369e-01 3.88669141e-05 1.16304174e-04 2.28925012e-02
      1.21337824e-01 2.23858729e-01 3.36399734e-01 1.90423906e-01
      2.50292152e-01 3.36399734e-01 2.32128128e-02 8.76480306e-04
      3.77915846e-03 3.34807634e-02 3.86629961e-02 2.15717122e-01
      1.65313482e-01 3.36399734e-01 1.33945867e-01 6.71269000e-02
      1.81072652e-01 3.51563916e-02 1.93032296e-03 1.79007612e-02
      6.74589798e-02 9.21282731e-03 9.61173847e-02 7.57784098e-02
      7.29549602e-02 2.90372849e-01 2.90372849e-01 2.38556892e-01
      1.75963894e-01 2.21976042e-01 1.11442246e-02 4.83428091e-02
      2.90372849e-01 1.53721347e-01 2.09471747e-01 2.77935863e-02
      3.02187670e-02 0. 0. 1.05087152e-02 2.90372849e-01 2.46023327e-01
      2.90372849e-01 2.90372849e-01 2.57026911e-01 2.43288562e-01
      1.55611825e-03 0. 0. 1.21540420e-01</_>
    <_>
      3.16587389e-01 9.74239931e-02 1.67746380e-01 2.36273389e-02
      3.88106741e-02 6.22456311e-04 0. 0. 3.16587389e-01 3.16587389e-01
      5.91097809e-02 9.18179452e-02 1.21136205e-02 1.51393972e-02
      1.18630618e-04 0. 0. 3.16587389e-01 3.16587389e-01 3.15833278e-02
      1.58462301e-01 3.99090648e-02 3.16587389e-01 1.89348757e-02
      6.31092712e-02 7.51528144e-03 3.16587389e-01 3.16587389e-01
      2.35445276e-02 9.44683850e-02 9.81322862e-03 2.90961191e-02
      4.04583290e-03 1.57516971e-02 2.90962076e-03 3.16587389e-01
      2.88366824e-01 4.98877838e-02 9.87560153e-02 2.54309587e-02
      6.64818361e-02 2.08383752e-03 1.64993355e-04 8.02569184e-03
      2.88366824e-01 1.53061137e-01 4.10503009e-03 1.64855309e-02
      3.91203016e-02 2.13235170e-01 5.52095808e-02 2.88366824e-01
      9.83326733e-02 2.36174121e-01 2.88366824e-01 5.91950417e-02
      2.88366824e-01 4.01505083e-02 1.49686923e-02 0. 0. 1.30916024e-02
      2.88366824e-01 2.88366824e-01 5.16090021e-02 2.88366824e-01
      1.41474798e-01 2.37166196e-01 1.64400470e-02 6.61389157e-02
      5.52140512e-02 2.88366824e-01 3.14970136e-01 5.34597691e-03
      5.05735725e-02 1.58835258e-02 3.14970136e-01 3.61458324e-02
      1.26127988e-01 3.23593542e-02 3.14970136e-01 3.14970136e-01
      4.54811677e-02 1.40487581e-01 1.09302094e-02 2.65376270e-02
      8.08585994e-03 3.14807929e-02 9.00608767e-03 3.14970136e-01
      3.14970136e-01 5.98952500e-03 6.68594963e-04 1.11285679e-03
      2.04704046e-01 1.01115583e-02 3.17400843e-02 2.13784520e-02
      3.03571284e-01 3.14970136e-01 8.75746533e-02 1.12738900e-01
      2.48356350e-02 3.97751965e-02 2.02146475e-03 7.87019730e-03
      5.34033496e-03 3.14970136e-01 2.79220521e-01 1.03952236e-01
      2.79220521e-01 3.35958302e-02 8.13029893e-03 0. 0. 2.14376650e-03
      2.79220521e-01 2.55123168e-01 1.59821168e-01 2.79220521e-01
      7.17119351e-02 7.93514848e-02 2.12106900e-03 3.32589814e-04
      7.82329869e-03 1.74548045e-01 2.79220521e-01 2.72584587e-01
      2.79220521e-01 5.54661378e-02 1.63084269e-03 0. 0. 0.
      2.17459515e-01 2.79220521e-01 2.79220521e-01 2.79220521e-01
      7.04988837e-02 5.65101346e-03 1.02893857e-03 3.76873882e-04
      3.71560600e-04 1.45778522e-01</_>
    <_>
      2.55497456e-01 1.89466849e-02 6.20780960e-02 1.79727562e-02
      9.32562798e-02 0. 7.33711815e-04 3.98180768e-04 1.72880992e-01
      3.24355811e-01 6.17539473e-02 8.66585746e-02 5.75282834e-02
      1.04759960e-02 2.99602019e-04 2.42017116e-03 8.08779034e-04
      3.21310103e-01 3.24355811e-01 1.17196187e-01 3.24355811e-01
      2.21747175e-01 1.33765191e-01 2.80236620e-02 1.29891643e-02 0.
      3.24355811e-01 3.24355811e-01 8.76273140e-02 2.01523483e-01
      8.85822475e-02 3.26090641e-02 1.19840773e-03 1.21637518e-02
      5.09167556e-03 3.24355811e-01 1.87693253e-01 1.28241971e-01
      1.19484149e-01 9.14566219e-02 3.21848132e-02 4.63152193e-02
      7.96820894e-02 7.45825842e-02 1.46509647e-01 9.40335393e-02
      7.54885077e-02 4.98413220e-02 4.23789844e-02 2.64882863e-01
      2.23675236e-01 3.01915973e-01 1.33282766e-01 8.77845660e-02
      3.01915973e-01 1.27360567e-01 2.14174598e-01 1.00823350e-01
      1.08393148e-01 9.41985175e-02 2.01290607e-01 6.29416257e-02
      3.01915973e-01 1.19969942e-01 6.13122061e-02 9.43190455e-02
      8.47623125e-02 3.01915973e-01 2.70815045e-01 3.01915973e-01
      8.30959901e-02 1.18412040e-01 2.84436852e-01 1.12711661e-01
      2.63002485e-01 1.98630810e-01 1.72955573e-01 8.40111524e-02
      4.10264358e-02 7.39638358e-02 2.84436852e-01 2.84436852e-01
      1.35491118e-01 1.74696058e-01 1.08638376e-01 3.27453576e-02
      1.38560040e-02 3.52548547e-02 1.23337284e-02 2.84436852e-01
      2.84436852e-01 9.23433006e-02 4.25860658e-02 4.93361503e-02
      1.76013604e-01 8.72261301e-02 1.00665040e-01 1.23802967e-01
      2.84436852e-01 2.84436852e-01 1.58517584e-01 1.00945860e-01
      8.77887607e-02 1.49489511e-02 2.02689301e-02 2.40853876e-02
      8.20104219e-03 2.84436852e-01 2.78182954e-01 8.84214491e-02
      1.49410903e-01 8.45139325e-02 9.21653733e-02 1.00920908e-01
      1.78261355e-01 9.08458903e-02 2.78182954e-01 1.14263035e-01
      1.15389541e-01 1.22655235e-01 1.63956791e-01 2.78182954e-01
      1.66379035e-01 2.45553017e-01 1.06036074e-01 1.42279565e-01
      2.02409402e-01 8.10359642e-02 8.39879885e-02 8.58284384e-02
      5.04279770e-02 8.43197554e-02 9.73197445e-02 1.03424080e-01
      2.12425962e-01 1.58358783e-01 1.91012949e-01 2.78182954e-01
      2.56793052e-01 2.78182954e-01 7.77863339e-02 8.90867934e-02
      1.37226686e-01 1.71196058e-01</_>
    <_>
      3.05678427e-01 3.72820944e-02 5.75357229e-02 1.69256143e-02
      5.88244312e-02 0. 4.62164549e-04 1.54447669e-04 3.05678427e-01
      3.05678427e-01 1.49325266e-01 2.24129319e-01 3.21795903e-02
      2.80881990e-02 1.51067012e-04 3.08109709e-04 1.02965125e-04
      3.05678427e-01 3.05678427e-01 4.34423536e-02 1.88454375e-01
      8.27178657e-02 3.05678427e-01 1.79618001e-02 3.08109709e-04
      1.02965125e-04 2.29686186e-01 3.05678427e-01 1.41061157e-01
      1.97534069e-01 3.57350633e-02 9.48998034e-02 1.01657901e-02
      3.87905835e-04 1.29631648e-04 3.05678427e-01 1.56109765e-01
      1.23013318e-01 2.05367550e-01 4.12934460e-02 6.56480268e-02
      2.53274348e-02 4.12578695e-02 8.45628791e-03 1.65568456e-01
      5.36667481e-02 4.08992544e-02 4.94166240e-02 1.31170079e-02
      2.69568652e-01 2.53297001e-01 2.69568652e-01 4.04116996e-02
      1.21786192e-01 2.69568652e-01 2.05970436e-01 2.69568652e-01
      1.01786338e-01 5.38613051e-02 3.05944160e-02 6.11237399e-02
      1.80417877e-02 2.69568652e-01 9.15650204e-02 9.28804278e-02
      2.69568652e-01 2.06588402e-01 2.69568652e-01 2.28361443e-01
      2.69568652e-01 4.19808514e-02 1.90713286e-01 1.42070830e-01
      2.48995554e-02 1.05371781e-01 5.99105395e-02 2.77131170e-01
      1.28429323e-01 1.03921100e-01 3.24330665e-02 1.46171600e-01
      2.77131170e-01 4.97496687e-02 2.32327521e-01 6.99583441e-02
      1.67312458e-01 5.18484004e-02 6.74272999e-02 4.81163263e-02
      2.77131170e-01 5.68260476e-02 7.43166675e-05 0. 4.30762442e-03
      2.77131170e-01 1.70693561e-01 2.27670565e-01 1.79382890e-01
      2.36116767e-01 2.65450448e-01 6.33816719e-02 2.77131170e-01
      6.86205626e-02 9.65002328e-02 6.47730157e-02 1.49041012e-01
      2.55470932e-01 2.77131170e-01 1.58024400e-01 6.13907985e-02
      2.91901678e-01 1.88941315e-01 2.58833524e-02 6.88675465e-03
      1.92522015e-02 1.30643658e-02 1.79878041e-01 6.82897121e-02
      3.16603407e-02 2.91901678e-01 2.76158303e-01 2.88698673e-01
      5.74473850e-02 1.20606706e-01 1.12305004e-02 8.39692876e-02
      2.00561717e-01 1.38857976e-01 2.91901678e-01 1.66743070e-01
      6.17819056e-02 1.34611251e-02 1.26442946e-02 7.75741115e-02
      2.29360119e-01 2.35990524e-01 2.91901678e-01 2.91901678e-01
      2.02235967e-01 1.48697913e-01 4.21774015e-03 4.56444873e-03
      2.45347861e-02 1.15162551e-01</_>
    <_>
      1.56372875e-01 8.06071982e-02 3.08658808e-01 4.48206291e-02
      1.19386531e-01 7.19011901e-03 2.15967298e-02 4.63196496e-03
      9.60884094e-02 3.08658808e-01 1.67839061e-02 4.09247614e-02
      1.02760894e-02 8.08656514e-02 2.55821701e-02 1.41089037e-01
      6.93636239e-02 3.08658808e-01 2.72874296e-01 3.44167203e-02
      1.85821220e-01 3.84383090e-02 3.08658808e-01 8.75733793e-03
      3.08658808e-01 4.75953259e-02 1.99860170e-01 3.08658808e-01
      1.99004468e-02 9.52352285e-02 2.12058555e-02 8.35818350e-02
      4.22333553e-03 2.58881152e-01 3.44898589e-02 3.08658808e-01
      2.91740835e-01 0. 4.05672363e-05 8.29796263e-05 8.64961743e-03
      1.13605978e-02 9.20440406e-02 5.11947349e-02 2.91740835e-01
      2.91740835e-01 0. 0. 4.49824205e-04 5.71297668e-03 3.93100716e-02
      2.91740835e-01 1.60883978e-01 2.91740835e-01 2.91740835e-01
      3.66808730e-03 2.14241836e-02 5.26260398e-03 1.66231452e-03
      6.67462312e-03 2.04012588e-01 3.87915969e-02 2.91740835e-01
      2.38463342e-01 1.00801997e-02 8.46941173e-02 2.31731329e-02
      2.68594593e-01 3.55603285e-02 2.91740835e-01 1.02733597e-01
      2.91740835e-01 1.11241430e-01 3.70177533e-03 3.62821445e-02
      9.56782419e-03 1.30130142e-01 3.42327245e-02 2.98887223e-01
      1.88106328e-01 1.71943635e-01 2.98887223e-01 2.42826203e-03
      2.36346815e-02 5.55803627e-03 3.34611647e-02 1.86374448e-02
      2.98887223e-01 7.76760280e-02 2.98887223e-01 1.12580746e-01
      1.00497506e-03 4.15688090e-04 2.67878146e-04 4.15477902e-03
      5.36133088e-02 2.98887223e-01 2.98887223e-01 1.81156948e-01
      2.98887223e-01 2.16514745e-04 0. 6.69695291e-05 2.20921892e-03
      3.44490632e-02 2.98887223e-01 1.96183175e-01 2.98887223e-01
      3.01274747e-01 9.42480285e-03 3.51096354e-02 8.66404176e-03
      1.27879600e-03 1.68639782e-03 1.04298241e-01 1.42679410e-02
      3.01274747e-01 3.01274747e-01 3.44294794e-02 1.40145257e-01
      3.67515720e-02 2.94820607e-01 6.88503869e-03 2.58751273e-01
      3.05623207e-02 2.60200560e-01 3.01274747e-01 5.59710106e-03
      8.71933065e-03 2.16601044e-03 1.14366319e-02 1.04088504e-02
      1.05451927e-01 7.17239156e-02 3.01274747e-01 3.01274747e-01
      4.03364152e-02 1.09891325e-01 2.46062223e-02 1.21321335e-01
      2.97630299e-02 2.20192656e-01 9.69220251e-02 3.01274747e-01</_>
    <_>
      3.97102796e-02 1.24628106e-02 1.49769232e-01 3.38473767e-01
      3.38473767e-01 5.77570647e-02 1.98968705e-02 0. 1.66091193e-02
      1.20914534e-01 1.90231632e-02 1.39604837e-01 2.12988079e-01
      2.59174019e-01 5.02506755e-02 1.51533306e-01 1.50811762e-01
      1.32915452e-01 1.37051623e-02 7.71265477e-05 3.76023762e-02
      1.36782110e-01 3.38473767e-01 3.38473767e-01 1.41337365e-01
      1.74461193e-02 3.37684900e-02 1.48120090e-01 6.07243972e-03
      4.21893857e-02 6.81546628e-02 3.38473767e-01 2.59225816e-01
      1.27561286e-01 2.77605411e-02 1.68362781e-01 5.03180362e-02
      2.16071680e-03 7.97612220e-03 1.90117268e-03 3.09698164e-01
      9.06475112e-02 1.38753206e-01 2.18157142e-01 1.32283613e-01
      1.10124359e-02 0. 0. 5.04576834e-03 4.77971137e-01 2.27975294e-01
      1.14250407e-01 1.19622052e-01 6.19812086e-02 1.04149103e-01
      1.76061746e-02 5.46272285e-02 3.91819216e-02 4.77971137e-01
      2.38229483e-02 1.37286335e-02 1.61248446e-02 8.49289745e-02
      2.54991576e-02 1.38759650e-02 4.66724373e-02 8.26130360e-02
      4.77971137e-01 3.84873040e-02 5.17023401e-03 9.32366028e-03
      1.04474826e-02 6.02050349e-02 7.22034883e-06 2.16059543e-05
      6.73168991e-03 2.94441462e-01 2.94441462e-01 1.74426809e-01
      4.62738760e-02 1.30620062e-01 2.94441462e-01 1.16820084e-02
      1.98931359e-02 1.79169595e-03 1.45777509e-01 1.47438914e-01
      1.28132865e-01 5.13090752e-02 2.94441462e-01 1.32542625e-01 0.
      8.64660688e-05 3.71087296e-03 1.40189469e-01 2.25329503e-01
      2.94441462e-01 2.94441462e-01 2.65010059e-01 2.94441462e-01
      6.35383604e-03 4.84617846e-03 8.52052472e-04 2.66017895e-02
      2.94410661e-02 1.26247823e-01 1.08641967e-01 2.94441462e-01
      3.06203961e-01 4.30989526e-02 1.05209768e-01 5.67427985e-02
      2.30515152e-01 2.61947024e-03 8.67972616e-03 5.06215123e-03
      2.45771617e-01 9.41962078e-02 3.59601751e-02 2.60275900e-01
      1.89275399e-01 3.14045995e-01 6.94238162e-03 3.45167209e-05
      1.15348812e-05 4.54805344e-02 3.14045995e-01 3.30389254e-02
      1.58576220e-01 9.88167450e-02 5.07131591e-02 7.15806964e-04
      2.88592535e-03 1.31911123e-02 3.14045995e-01 1.08969927e-01
      4.73414436e-02 3.14045995e-01 3.14045995e-01 3.14045995e-01
      2.86322739e-03 1.38066855e-04 6.84929406e-03 1.13036528e-01</_>
    <_>
      1.86245650e-01 2.59482831e-01 2.59482831e-01 7.07974136e-02
      6.49185330e-02 9.34808922e-04 5.05837670e-04 1.69042047e-04
      1.07988387e-01 2.59482831e-01 2.59482831e-01 2.59482831e-01
      2.85486560e-02 3.73417772e-02 9.98861156e-04 2.10945010e-02
      4.48722951e-02 2.59482831e-01 4.97039557e-02 2.59482831e-01
      2.59482831e-01 2.59482831e-01 2.59482831e-01 1.00169517e-01
      4.70191464e-02 7.09593948e-03 4.28476222e-02 2.32089654e-01
      2.59482831e-01 2.59482831e-01 9.79484916e-02 4.21909243e-02
      3.99307497e-02 5.47789149e-02 6.00215122e-02 1.97854027e-01
      2.36045867e-01 6.37656897e-02 4.10475656e-02 2.78934324e-03
      3.63821797e-02 2.77462583e-02 1.67975008e-01 2.40739286e-01
      2.75323838e-01 9.54994261e-02 2.47193675e-04 7.39694980e-04 0.
      1.18659645e-01 7.84328505e-02 2.75323838e-01 2.75323838e-01
      2.06353471e-01 2.02623650e-01 1.18532531e-01 1.06923461e-01
      2.67245751e-02 1.46572500e-01 5.51191121e-02 1.93848953e-01
      2.62471467e-01 2.46019244e-01 9.47891101e-02 1.74002498e-02
      7.14589730e-02 7.86423534e-02 2.75323838e-01 1.72958657e-01
      2.75323838e-01 2.71046191e-01 1.17596924e-01 3.97729427e-02
      6.43914863e-02 1.10175937e-01 1.43837869e-01 2.56560624e-01
      2.07513198e-01 2.56560624e-01 9.37062204e-02 8.83806720e-02
      1.81798771e-01 2.56560624e-01 2.47145340e-01 5.89542314e-02
      4.48207296e-02 7.28246048e-02 1.39644846e-01 1.10403948e-01
      2.17989057e-01 1.40374541e-01 4.00342941e-02 2.47568488e-02
      2.72985926e-04 1.10468872e-01 1.19884275e-01 2.56560624e-01
      2.56560624e-01 2.56560624e-01 2.56560624e-01 2.56560624e-01
      1.44198358e-01 1.09194359e-03 1.08336933e-01 3.17771733e-02
      1.24120362e-01 1.58884630e-01 2.56560624e-01 2.32184127e-01
      2.32770011e-01 2.06880122e-01 4.40393686e-02 1.05324678e-01
      1.64817963e-02 7.47444108e-02 6.56550750e-02 2.46789575e-01
      1.83022633e-01 7.72593319e-02 2.42365330e-01 1.70915902e-01
      2.75503397e-01 5.19527197e-02 7.52457753e-02 4.85531688e-02
      1.74596742e-01 2.75503397e-01 2.34189585e-01 1.65225029e-01
      1.32146860e-02 7.40999803e-02 1.22884964e-03 1.25954067e-02
      2.66255494e-02 2.75503397e-01 2.30634838e-01 2.40273282e-01
      2.75503397e-01 1.26609042e-01 1.81086361e-01 2.37623788e-03
      8.39693658e-03 1.05450414e-02 2.03487560e-01</_>
    <_>
      1.62851483e-01 1.36361718e-01 2.78339267e-01 2.78339267e-01
      1.67720392e-01 4.97790694e-04 4.24844213e-02 1.02401555e-01
      1.67675316e-01 2.78339267e-01 4.95210215e-02 1.78049371e-01
      8.74507129e-02 3.54827382e-02 3.31860385e-04 1.62734270e-01
      2.20624954e-01 2.78339267e-01 2.59744171e-02 1.93116013e-02
      1.85502082e-01 2.78339267e-01 2.78339267e-01 2.78339267e-01
      8.42148736e-02 5.03640287e-02 5.74293993e-02 1.99516624e-01
      1.76251512e-02 8.58800262e-02 1.19148269e-01 8.86258334e-02
      9.71276015e-02 7.61267617e-02 1.11393429e-01 2.78339267e-01
      2.91730195e-01 1.05096726e-03 6.66740016e-05 3.90674657e-04
      5.19141704e-02 5.73801249e-02 9.75638703e-02 9.14095938e-02
      2.91730195e-01 2.18720049e-01 5.09921636e-04 0. 2.35051080e-03
      2.57771075e-01 2.36555219e-01 2.91730195e-01 1.04812890e-01
      2.81994373e-01 2.19352037e-01 1.14745945e-02 5.69402277e-02
      2.60240361e-02 1.27290756e-01 1.41074985e-01 5.46042472e-02
      5.49941137e-02 2.91730195e-01 1.16586186e-01 1.15180425e-02
      1.60007715e-01 1.38680339e-01 2.91730195e-01 2.91730195e-01
      1.45838514e-01 5.04534207e-02 1.58669323e-01 5.69934547e-02
      3.65644635e-04 4.92138835e-03 8.51321071e-02 1.59061462e-01
      3.05987835e-01 2.71042615e-01 9.17397439e-02 1.07233509e-01
      2.92828739e-01 1.68697629e-02 2.53770896e-03 1.67827755e-02
      3.90554927e-02 1.07810207e-01 1.22413605e-01 9.47731286e-02
      3.05987835e-01 2.16059729e-01 1.39376107e-05 4.17066476e-05
      7.55445450e-04 6.69856966e-02 1.61495253e-01 3.05987835e-01
      2.46224597e-01 3.00816745e-01 3.05987835e-01 2.06681378e-02
      2.75022408e-04 2.27888278e-03 1.19907111e-01 3.23076211e-02
      1.14537306e-01 1.37196288e-01 3.05987835e-01 2.38950148e-01
      8.26445594e-02 1.63521290e-01 3.74544561e-02 3.74177992e-02
      4.31082956e-02 4.06818138e-03 8.06952268e-03 1.85604334e-01
      1.04730546e-01 1.02372803e-01 3.34917694e-01 2.15548664e-01
      1.74879417e-01 2.53186047e-01 5.00670914e-03 3.92787297e-05
      6.40349537e-02 3.34917694e-01 1.80608526e-01 1.99271306e-01
      2.46751290e-02 1.00234658e-01 1.39537122e-04 2.02183204e-04
      8.43505375e-03 3.34917694e-01 1.83312342e-01 3.02068591e-01
      3.34917694e-01 1.58583596e-01 6.17464781e-02 0. 2.93841185e-05
      9.81968151e-06 1.20534815e-01</_>
    <_>
      1.83161557e-01 1.31654873e-01 3.83403778e-01 1.95097759e-01
      3.83403778e-01 1.92219689e-02 5.68431569e-03 7.38404179e-03
      1.38818800e-01 3.83403778e-01 6.56428933e-02 1.57285482e-01
      2.25621220e-02 7.71238953e-02 3.07046119e-02 3.33897769e-02
      4.25871238e-02 3.83403778e-01 1.25780264e-02 6.34831702e-03
      1.53278470e-01 9.94667634e-02 3.83403778e-01 5.82258180e-02
      5.52721620e-02 2.99913622e-03 1.33743826e-02 3.56125832e-02
      2.04174686e-03 4.55287546e-02 2.62262151e-02 2.55799353e-01
      2.19636727e-02 2.22523827e-02 3.98396561e-03 4.95035164e-02
      1.40123174e-01 1.81544510e-05 1.57401519e-04 1.23675924e-03
      1.98603958e-01 2.01098725e-01 1.16903268e-01 8.14579874e-02
      2.27412075e-01 1.38922576e-02 0. 0. 3.41875292e-03 3.95914376e-01
      3.95914376e-01 3.83154273e-01 5.17350398e-02 3.55711356e-02
      8.88443738e-03 1.03415012e-04 5.09656128e-03 4.18757983e-02
      3.95914376e-01 8.09569731e-02 2.58375518e-02 1.97636196e-03
      2.04627458e-02 6.24459819e-04 2.28280078e-05 7.14589190e-03
      5.56007214e-02 3.95914376e-01 1.48093507e-01 1.09411992e-01
      4.24352998e-04 3.37798381e-03 5.37272245e-02 0. 4.81532661e-05
      7.84543809e-03 3.27738017e-01 1.09305166e-01 3.27738017e-01
      3.49673480e-02 8.49689618e-02 2.37632915e-01 9.69800260e-03
      2.65321881e-02 2.23120246e-02 1.17211290e-01 1.39115956e-02
      1.10027306e-01 1.86710656e-02 2.10807294e-01 1.77206770e-01 0. 0.
      2.48354990e-02 3.27738017e-01 2.01154053e-01 3.27738017e-01
      1.04926117e-01 2.95878202e-01 3.27738017e-01 2.65587177e-02
      4.03301977e-02 2.20172200e-02 7.28259683e-02 6.35802047e-03
      1.38145983e-01 4.51874472e-02 3.27738017e-01 1.31079242e-01
      1.81612391e-02 1.06151707e-01 1.52553648e-01 3.04664284e-01
      1.74780027e-03 7.50460662e-04 3.34872107e-04 6.56542554e-02
      2.58071814e-02 9.66032781e-03 2.12178349e-01 2.48671383e-01
      3.32365692e-01 6.67174440e-03 0. 0. 3.25621176e-03 3.32365692e-01
      6.25858754e-02 2.39825800e-01 2.17828751e-01 1.02732100e-01
      9.37192061e-04 3.94611561e-04 1.80326562e-04 2.37684265e-01
      9.02701095e-02 5.26277535e-02 3.32365692e-01 3.32365692e-01
      3.32365692e-01 3.18616536e-03 0. 0. 2.50190627e-02</_>
    <_>
      2.99581975e-01 7.01071396e-02 8.96053389e-02 8.23083520e-02
      2.99581975e-01 1.78782793e-03 1.80770076e-04 6.04101770e-05
      2.43932500e-01 2.99581975e-01 1.64333880e-02 1.75544154e-02
      1.12575153e-02 2.95876879e-02 3.07867099e-02 7.27106258e-02
      6.03224784e-02 2.99581975e-01 2.99581975e-01 4.39600646e-02
      4.63604592e-02 7.29128271e-02 2.99581975e-01 3.50341946e-02
      1.44836545e-01 1.89795736e-02 2.99581975e-01 2.99581975e-01
      1.22980746e-02 1.31825898e-02 1.73985809e-02 5.01716547e-02
      8.10597762e-02 1.87201977e-01 1.47850990e-01 2.99581975e-01
      2.40633518e-01 1.57371192e-04 1.32951958e-04 6.13770026e-05
      4.94305938e-02 6.62152469e-02 1.51137993e-01 1.69171393e-01
      2.40633518e-01 2.21254289e-01 0. 0. 0. 6.30327016e-02
      1.52004376e-01 2.40633518e-01 2.40633518e-01 2.40633518e-01
      2.40633518e-01 4.33964329e-03 2.60611009e-02 1.78041700e-02
      5.58510842e-03 1.28901869e-01 2.37033471e-01 2.36044228e-01
      2.40633518e-01 1.70519099e-01 4.73015197e-02 2.07119510e-01
      6.16485104e-02 2.40633518e-01 1.66890576e-01 2.40633518e-01
      2.40633518e-01 2.20905825e-01 2.72307783e-01 6.34673866e-04
      2.04829412e-04 1.19693521e-02 2.09760636e-01 2.80481633e-02
      1.13292970e-01 2.97425129e-02 2.72307783e-01 2.72307783e-01
      4.99067770e-04 5.50058787e-04 2.56168703e-03 1.53264748e-02
      1.16242573e-01 2.72307783e-01 1.74071580e-01 2.72307783e-01
      2.72307783e-01 8.12252838e-05 0. 1.03810825e-03 1.45434141e-02
      5.30759767e-02 1.09033316e-01 1.58631176e-01 2.72307783e-01
      2.72307783e-01 0. 0. 5.89576084e-04 9.25515965e-02 1.73951313e-01
      2.72307783e-01 2.72307783e-01 2.72307783e-01 1.44397154e-01
      5.00075445e-02 1.27698824e-01 5.79571873e-02 5.96577954e-03
      1.67505592e-01 2.55323499e-01 2.03565896e-01 1.64419219e-01
      7.82673359e-02 1.65090725e-01 2.55323499e-01 1.98960274e-01
      2.55323499e-01 8.69326517e-02 2.11209074e-01 1.00556001e-01
      7.98562616e-02 1.58578381e-01 6.30437657e-02 1.24320485e-01
      4.08718102e-02 1.15989067e-01 1.37724683e-01 2.55323499e-01
      2.31037036e-01 2.05072761e-01 1.72956645e-01 1.53603733e-01
      2.55323499e-01 2.44375676e-01 2.55323499e-01 4.07793298e-02
      1.07492447e-01 5.73624782e-02 1.45826906e-01</_>
    <_>
      2.81834573e-01 5.44533059e-02 2.16403067e-01 3.71419601e-02
      1.50452843e-02 0. 0. 5.24063711e-04 2.81834573e-01 2.81834573e-01
      1.71597391e-01 2.81834573e-01 8.74029621e-02 2.53665131e-02 0. 0.
      7.86095567e-04 2.81834573e-01 2.81834573e-01 6.72032163e-02
      2.81834573e-01 1.10405624e-01 1.20333560e-01 0. 2.10849437e-04
      4.19837917e-04 1.85394004e-01 2.81834573e-01 2.04136550e-01
      2.81834573e-01 7.94453099e-02 1.42685520e-02 0. 1.08181464e-03
      8.85587418e-04 2.81834573e-01 2.13886321e-01 1.23900756e-01
      3.10662150e-01 8.60949829e-02 1.14116922e-01 6.06661662e-02
      3.12031936e-02 6.50391355e-02 1.31947622e-01 1.02982968e-01
      3.88945714e-02 5.04458770e-02 1.65916365e-02 3.10662150e-01
      3.02417725e-01 3.10662150e-01 1.26520202e-01 9.88760814e-02
      1.54023618e-01 1.49930254e-01 3.10662150e-01 1.01437315e-01
      2.74350941e-01 5.87916188e-02 7.95660261e-03 4.23617661e-02
      9.50566903e-02 6.51005954e-02 7.53653720e-02 9.62272137e-02
      9.97626483e-02 3.10662150e-01 2.24425837e-01 2.00085133e-01
      7.76796788e-02 5.15605360e-02 2.25963593e-01 5.59221432e-02
      2.59281337e-01 1.11045085e-01 2.59281337e-01 3.94890681e-02
      1.13242902e-01 3.14740576e-02 1.20181896e-01 2.59281337e-01
      2.21107677e-01 2.59281337e-01 3.18773463e-02 3.40876840e-02 0.
      3.36685516e-02 4.64344025e-02 2.54068911e-01 2.59281337e-01
      7.62147754e-02 4.17451486e-02 3.11398432e-02 2.59281337e-01
      8.10446516e-02 2.59281337e-01 1.48975879e-01 1.06235571e-01
      2.59281337e-01 2.59281337e-01 1.01678967e-01 3.22623402e-02
      5.52488081e-02 6.13480515e-04 8.38080198e-02 2.27230966e-01
      2.35511273e-01 1.23906232e-01 2.92015404e-01 2.39042327e-01
      8.66854712e-02 1.45903900e-01 7.02527445e-03 2.23613880e-03
      1.16019091e-02 7.95482695e-02 6.44802973e-02 2.46913061e-01
      2.71338969e-01 2.21304998e-01 2.92015404e-01 4.19687405e-02
      8.49704072e-02 4.40534484e-03 5.01998551e-02 2.65857071e-01
      2.92015404e-01 2.19378144e-01 6.35434538e-02 8.40305835e-02
      1.36491156e-03 5.66702988e-03 5.64303175e-02 1.01552248e-01
      1.93600580e-01 2.92015404e-01 2.92015404e-01 2.54377604e-01
      1.11508586e-01 2.28735409e-03 0. 0. 7.47877508e-02</_>
    <_>
      1.29413649e-01 2.55050153e-01 2.55050153e-01 2.55050153e-01
      4.81006093e-02 4.05080952e-02 0. 5.72086254e-04 5.50964177e-02
      2.55050153e-01 2.55050153e-01 2.02746108e-01 3.49612981e-02
      5.19637689e-02 9.95595381e-03 1.81978811e-02 4.07142267e-02
      2.54350424e-01 1.80728555e-01 2.55050153e-01 2.55050153e-01
      2.19413877e-01 2.55050153e-01 3.12611982e-02 0. 1.06981059e-03
      8.78805742e-02 2.55050153e-01 2.55050153e-01 2.09298834e-01
      4.43616882e-02 1.52974054e-01 7.69547839e-03 2.75727771e-02
      4.32122126e-02 2.23669186e-01 2.23761544e-01 5.51676266e-02
      4.16529477e-02 3.03845713e-03 7.52098933e-02 3.69069353e-02
      1.58738300e-01 2.74800867e-01 2.75145918e-01 9.67513621e-02
      6.35920005e-05 1.90291510e-04 1.54128205e-03 1.48578510e-01
      1.40725747e-01 2.93784827e-01 2.93784827e-01 1.48096070e-01
      1.68434218e-01 4.68319207e-02 5.58663420e-02 2.23489255e-02
      1.68630719e-01 4.98083644e-02 1.71356425e-01 2.89872169e-01
      2.05751479e-01 7.91329071e-02 7.76403700e-04 4.81122639e-03
      6.03446923e-02 2.93784827e-01 2.33917147e-01 2.06194833e-01
      2.93784827e-01 1.11232318e-01 9.22781304e-02 5.55673949e-02
      5.21944650e-02 5.58620654e-02 3.36725146e-01 7.02905804e-02
      1.20496504e-01 3.00951563e-02 1.09400392e-01 2.32822537e-01
      6.11703098e-02 3.41933966e-02 1.29673202e-02 2.24554509e-01
      1.64972711e-02 4.99684252e-02 1.78243741e-02 2.30777055e-01
      2.16013163e-01 1.14745526e-04 2.38784179e-02 1.91836283e-02
      3.36725146e-01 1.27277836e-01 3.36725146e-01 1.14073157e-01
      3.33929837e-01 3.36725146e-01 2.34418157e-02 6.84012426e-03
      4.79590660e-03 1.09841630e-01 2.65938267e-02 1.01982526e-01
      4.20217440e-02 3.36725146e-01 1.65248826e-01 7.39653856e-02
      1.12940796e-01 9.22350213e-02 1.84609488e-01 1.72928870e-02
      2.82001551e-02 4.83444743e-02 1.24850214e-01 5.43252602e-02
      6.28937110e-02 2.01910675e-01 2.60384887e-01 2.92798758e-01
      6.64332658e-02 2.94023324e-02 7.09938481e-02 2.78186742e-02
      2.92798758e-01 1.72133088e-01 1.72353536e-01 7.99829960e-02
      6.52882978e-02 1.71141190e-04 6.49668742e-04 1.21609063e-03
      2.92798758e-01 2.92798758e-01 2.63329744e-01 2.92798758e-01
      2.59760559e-01 2.92798758e-01 0. 6.05323767e-05 2.68161704e-04
      2.05339983e-01</_>
    <_>
      3.24147284e-01 1.37022749e-01 8.23280364e-02 1.21832736e-01
      1.45031884e-01 4.19470388e-03 0. 0. 3.24147284e-01 3.24147284e-01
      5.46578551e-03 0. 0. 6.82510529e-03 3.10156291e-04 4.45550948e-04
      1.48895575e-04 3.24147284e-01 3.24147284e-01 1.03175864e-01
      2.45650839e-02 1.21332787e-01 3.24147284e-01 3.99275050e-02
      6.09878218e-03 9.17168520e-03 2.57633567e-01 3.24147284e-01
      1.08582098e-02 4.14504466e-04 0. 2.17273571e-02 1.37294037e-03
      1.88614719e-03 2.86419038e-03 3.24147284e-01 2.93530256e-01
      4.28862550e-05 0. 1.81720592e-04 5.79190766e-03 5.30528428e-04
      1.30209373e-03 6.97458955e-03 2.93530256e-01 2.93530256e-01 0. 0.
      3.90748447e-03 2.17375100e-01 1.73119783e-01 1.21545851e-01
      1.88955933e-01 2.93530256e-01 2.93530256e-01 8.24828632e-03
      1.54832052e-02 1.32050868e-02 1.57412887e-02 1.28834206e-03
      3.99638107e-03 1.11258188e-02 2.93530256e-01 2.35307708e-01
      1.30432835e-02 2.16831774e-01 1.63595259e-01 2.93530256e-01
      1.72497272e-01 3.50784138e-02 1.37153119e-01 2.93530256e-01
      2.21711114e-01 5.97983273e-03 2.50534550e-03 1.99873410e-02
      3.19803596e-01 9.43906158e-02 1.91164166e-02 8.67232010e-02
      2.83538520e-01 3.19803596e-01 2.31046090e-03 5.14920510e-04 0.
      1.24132186e-02 1.01359212e-03 1.56651658e-03 6.78936671e-03
      3.19803596e-01 3.19803596e-01 3.39106843e-02 1.84790641e-02
      4.79752524e-03 2.18334556e-01 1.49342835e-01 3.99950184e-02
      1.93498984e-01 3.19803596e-01 3.19803596e-01 3.92269269e-02
      3.92678194e-02 3.27624311e-03 1.28288969e-01 8.85987189e-03
      5.65145202e-02 2.31606159e-02 3.19803596e-01 2.87140220e-01
      4.31415066e-02 3.52771804e-02 1.85733400e-02 7.70333502e-03
      3.30344687e-04 2.23044073e-03 1.85753603e-03 2.81710088e-01
      2.04711899e-01 1.22218914e-01 2.87140220e-01 2.04402417e-01
      2.87140220e-01 3.10161784e-02 4.29778174e-03 4.98421304e-03
      1.33832246e-01 2.87140220e-01 7.16401637e-02 6.13536052e-02
      1.67859234e-02 8.75807628e-02 8.52380355e-04 3.39888260e-02
      1.20195542e-02 2.87140220e-01 2.87140220e-01 2.38730147e-01
      2.62890369e-01 2.12734610e-01 1.73137590e-01 8.86708312e-03
      1.76367932e-04 5.89390656e-05 2.87140220e-01</_>
    <_>
      9.72234011e-02 1.36420667e-01 1.26568854e-01 2.52472371e-01
      9.04214531e-02 2.13932060e-02 6.24941215e-02 1.73946291e-01
      1.83402047e-01 2.52472371e-01 1.56967625e-01 1.53513476e-01
      2.16372162e-01 6.25185817e-02 2.94575226e-02 7.72061525e-03
      8.22871700e-02 2.52472371e-01 1.60722673e-01 1.58866495e-01
      1.66216493e-01 2.10910469e-01 2.52472371e-01 3.60901728e-02
      7.37427697e-02 7.76616186e-02 1.52327120e-01 2.52472371e-01
      2.52472371e-01 2.52472371e-01 2.45990172e-01 1.96445882e-01
      2.58193873e-02 2.14025509e-02 3.17814201e-02 2.52472371e-01
      2.82951862e-01 6.84296116e-02 8.31763074e-02 5.28930798e-02
      1.07278317e-01 1.55978985e-02 3.63130942e-02 4.84321453e-02
      2.82951862e-01 1.76891372e-01 1.96206234e-02 2.93511581e-02
      3.38198990e-02 1.67771533e-01 5.07416092e-02 2.47448727e-01
      1.55560046e-01 2.82951862e-01 2.82951862e-01 1.58751488e-01
      2.82951862e-01 8.15510973e-02 1.67379722e-01 1.59100387e-02
      1.23053743e-02 1.54799400e-02 2.82951862e-01 1.42566904e-01
      4.76015322e-02 2.82951862e-01 9.51894149e-02 2.82951862e-01
      3.27044912e-02 5.89977168e-02 1.59412920e-02 2.82951862e-01
      1.36282742e-01 1.13809057e-01 1.50535211e-01 1.26306131e-01
      2.60306835e-01 8.46400559e-02 1.68982700e-01 5.94401583e-02
      1.23421587e-01 2.60306835e-01 2.60306835e-01 2.60306835e-01
      1.39919966e-01 1.33555904e-01 2.44379565e-02 1.04283139e-01
      7.40022883e-02 2.60306835e-01 1.04141176e-01 7.85194263e-02
      7.55959824e-02 3.56651209e-02 2.21020833e-01 9.61208940e-02
      2.60306835e-01 8.72333869e-02 1.44941032e-01 2.60306835e-01
      2.60306835e-01 1.98551163e-01 3.91494408e-02 9.65196416e-02
      1.84387565e-02 9.75580066e-02 1.94268718e-01 2.60306835e-01
      2.63789892e-01 2.63789892e-01 2.63789892e-01 5.69268242e-02
      7.53229111e-02 3.82679282e-03 1.65618735e-03 1.15227373e-02
      1.94608465e-01 1.73040465e-01 1.57725632e-01 2.63789892e-01
      7.50219971e-02 1.15541577e-01 8.33660364e-03 6.62474707e-03
      2.14554765e-03 1.37417868e-01 2.55573034e-01 2.63789892e-01
      1.29568979e-01 1.41031072e-01 8.39921087e-02 1.16834752e-04
      2.09911522e-02 1.39193863e-01 2.63789892e-01 2.63789892e-01
      2.63789892e-01 1.74200401e-01 2.63789892e-01 1.36235297e-01
      4.67338919e-04 5.24778757e-03 1.91421323e-02 2.30640933e-01</_>
    <_>
      1.63591146e-01 6.05787821e-02 2.56420285e-01 1.86880514e-01
      2.83140749e-01 3.05264490e-03 0. 0. 7.12255538e-02 2.83140749e-01
      7.14913756e-02 1.24997556e-01 4.82525043e-02 1.78949628e-02
      1.42264897e-02 1.02580383e-01 5.53570390e-02 2.83140749e-01
      1.70039877e-01 4.40421179e-02 2.83140749e-01 2.83140749e-01
      2.83140749e-01 1.54700041e-01 3.47311534e-02 1.28391653e-01
      1.99543372e-01 2.83140749e-01 5.32884002e-02 1.31435767e-01
      1.07137091e-01 2.05316339e-02 5.12935482e-02 1.07174285e-01
      1.55022338e-01 2.83140749e-01 1.97206676e-01 7.47142546e-03
      2.03646347e-03 1.68985559e-03 4.12358865e-02 3.67995091e-02
      2.33888760e-01 1.28915444e-01 2.55126208e-01 1.57100439e-01 0. 0.
      3.17946356e-03 1.77922994e-01 9.72829312e-02 2.55126208e-01
      1.41213641e-01 2.55126208e-01 2.55126208e-01 3.91629301e-02
      4.35434990e-02 8.63626525e-02 2.22274587e-02 5.44108599e-02
      2.43880644e-01 2.27303609e-01 2.55126208e-01 1.81915984e-01
      5.08238226e-02 9.46329758e-02 2.55126208e-01 2.55126208e-01
      1.34827957e-01 2.55126208e-01 1.55770063e-01 2.55126208e-01
      1.79582894e-01 9.79835168e-04 3.08959465e-02 7.94973224e-02
      2.05464810e-01 1.30870983e-01 1.05695643e-01 1.30590469e-01
      2.86096424e-01 3.17122668e-01 1.46975287e-03 1.24945613e-02
      2.67658811e-02 6.80493377e-03 2.81616170e-02 2.58057956e-02
      1.31377593e-01 3.17122668e-01 3.17122668e-01 0. 0. 0.
      4.58638445e-02 2.95495689e-02 2.57854313e-01 6.23985268e-02
      3.17122668e-01 3.17122668e-01 0. 0. 0. 4.58581261e-02
      9.84526649e-02 1.68716833e-01 2.26330236e-01 3.17122668e-01
      2.60801494e-01 6.51803762e-02 4.88352887e-02 9.03211609e-02
      9.22282692e-03 1.44149233e-02 5.36009744e-02 2.30118439e-01
      2.60801494e-01 2.15673983e-01 9.79995281e-02 2.31816575e-01
      2.60801494e-01 2.60801494e-01 4.62696962e-02 6.71856180e-02
      1.39937878e-01 1.68065071e-01 2.48950154e-01 1.82989072e-02
      7.21866591e-03 1.24169812e-02 1.24540813e-01 1.24455839e-01
      2.32890785e-01 2.42575780e-01 2.40363762e-01 1.10000417e-01
      2.74483636e-02 2.60801494e-01 2.60801494e-01 2.60801494e-01
      2.66196877e-02 5.08883074e-02 5.17384373e-02 5.30793034e-02</_>
    <_>
      1.03608452e-01 4.84814867e-02 2.67811894e-01 1.51893973e-01
      1.61275208e-01 3.60434018e-02 2.67811894e-01 1.00006230e-01
      1.25225052e-01 2.05798641e-01 1.20906457e-02 4.50267978e-02
      1.87466107e-02 5.00897430e-02 6.76007420e-02 2.67811894e-01
      1.85340255e-01 2.67811894e-01 9.52410772e-02 1.66090503e-02
      1.72011688e-01 1.41384721e-01 2.67811894e-01 8.38010833e-02
      2.67811894e-01 7.74792656e-02 2.28037342e-01 2.55096674e-01
      1.31629396e-03 1.99834798e-02 1.17825493e-02 3.91313471e-02
      7.86022171e-02 2.67811894e-01 2.25404158e-01 2.67811894e-01
      2.84010172e-01 1.68461632e-03 9.00643761e-04 1.61091296e-03
      1.57614462e-02 1.50044216e-02 1.43193275e-01 6.41571507e-02
      2.84010172e-01 2.84010172e-01 1.14092426e-02 6.92360685e-04
      8.68763588e-03 2.08930969e-02 1.10377274e-01 2.84010172e-01
      8.93324837e-02 2.84010172e-01 2.84010172e-01 1.93994565e-04
      1.90092158e-02 8.46719276e-03 1.79933421e-02 1.95584688e-02
      1.21955372e-01 8.94222260e-02 2.84010172e-01 2.84010172e-01
      9.69338231e-03 1.97591737e-01 6.31066784e-02 2.84010172e-01
      2.57650390e-02 2.76331753e-01 2.20724344e-02 2.84010172e-01
      1.84181452e-01 4.21244840e-05 4.80257301e-03 1.70420296e-02
      2.20100939e-01 1.12379648e-01 1.48005113e-01 1.08798891e-01
      2.57293075e-01 1.92795128e-01 5.42910444e-03 4.22069570e-03
      2.82335980e-03 1.47010967e-01 2.57293075e-01 7.93902650e-02
      2.17088088e-01 2.57293075e-01 2.57293075e-01 1.95390377e-02
      2.25080876e-03 5.40567515e-03 1.39852211e-01 1.39349118e-01
      1.19587898e-01 1.30306527e-01 2.57293075e-01 2.57293075e-01
      4.49911691e-02 1.39845768e-02 1.58051904e-02 2.57293075e-01
      2.57293075e-01 1.44802779e-01 2.57293075e-01 2.57293075e-01
      1.68930441e-01 2.68730931e-02 1.63973466e-01 3.91639844e-02
      6.92486987e-02 1.02176197e-01 3.14514674e-02 6.72821328e-02
      2.13362679e-01 1.09495468e-01 4.66879085e-02 2.91521519e-01
      2.00022340e-01 2.91521519e-01 2.51959241e-03 9.55680534e-02
      4.75386949e-03 1.65936813e-01 2.91521519e-01 9.60758552e-02
      2.86096215e-01 5.04438467e-02 8.25860053e-02 1.43898934e-01
      4.13908586e-02 1.13271803e-01 2.91521519e-01 2.87514389e-01
      1.17556334e-01 2.91521519e-01 2.46700481e-01 2.21229419e-01
      7.88133685e-03 0. 4.74963017e-04 1.23631082e-01</_>
    <_>
      9.33551118e-02 2.94500798e-01 2.94500798e-01 1.60634011e-01
      2.10695550e-01 8.17312568e-04 2.11276934e-02 8.78566527e-04
      2.62423456e-02 2.94500798e-01 2.94500798e-01 2.38586605e-01
      5.31875715e-02 1.02252319e-01 0. 3.20950821e-02 1.45270629e-03
      2.94500798e-01 5.36637679e-02 1.59224391e-01 2.94500798e-01
      2.27286935e-01 2.94500798e-01 3.67848612e-02 6.01145532e-03
      2.37557222e-04 3.83681208e-02 1.35513961e-01 1.75636053e-01
      2.14179695e-01 4.18586954e-02 2.19385073e-01 7.47008575e-03
      4.54195449e-03 1.07500155e-03 1.04196355e-01 3.23097974e-01
      6.38865605e-02 3.04955356e-02 8.79552754e-05 2.06372086e-02
      1.63694844e-02 1.40905216e-01 9.95610580e-02 3.23097974e-01
      1.94746748e-01 6.89204680e-05 2.06235753e-04 6.52824529e-04
      2.85568327e-01 2.12516502e-01 3.23097974e-01 1.99981302e-01
      2.58487165e-01 1.53410494e-01 7.26381317e-02 8.13684911e-02 0.
      9.89688188e-02 2.45542284e-02 9.33885947e-02 3.54604684e-02
      1.49524271e-01 9.89162475e-02 8.39552060e-02 1.72522232e-01
      5.11635132e-02 3.23097974e-01 2.16922507e-01 2.88240850e-01
      7.23915398e-02 9.75885987e-02 6.60408586e-02 1.59809925e-02
      2.73938864e-01 1.26965910e-01 2.73938864e-01 1.73916847e-01
      1.95389524e-01 7.63999373e-02 8.19244981e-02 1.68780193e-01
      1.77904591e-01 1.46442652e-01 1.45785213e-02 1.09925926e-01
      2.67907642e-02 6.90497831e-02 3.91551554e-02 1.33097246e-01
      2.50992835e-01 3.99524812e-03 3.68474461e-02 1.53620057e-02
      2.19272554e-01 1.94513753e-01 2.73938864e-01 2.17892408e-01
      2.73938864e-01 2.73938864e-01 2.73938864e-01 1.63597554e-01
      8.87103099e-03 4.05685306e-02 1.75429638e-02 1.11610048e-01
      1.11308984e-01 2.73938864e-01 9.40702781e-02 3.02452654e-01
      1.81417644e-01 0. 3.44329551e-02 2.38451106e-03 3.22152558e-03
      3.95781244e-04 5.47539257e-02 1.34804368e-01 3.06325316e-01
      3.06325316e-01 9.87338200e-02 3.06325316e-01 1.97935719e-02
      8.29967950e-03 5.04210548e-05 7.91159198e-02 2.60512173e-01
      3.06325316e-01 3.06325316e-01 2.16880962e-02 6.43603280e-02 0.
      2.15316380e-04 7.19550444e-05 1.31733507e-01 2.37965211e-01
      3.06325316e-01 3.06325316e-01 9.21220779e-02 9.10266265e-02
      1.00490032e-03 2.72758825e-05 9.11514417e-06 6.91321567e-02</_>
    <_>
      1.39809445e-01 6.37042001e-02 9.40722600e-02 2.49605164e-01
      2.82584906e-01 2.54673371e-03 1.17626272e-01 5.23419864e-02
      1.20393366e-01 2.82584906e-01 3.33989598e-02 0. 4.97838221e-02
      9.50045288e-02 2.14705104e-03 2.26221159e-01 1.37807846e-01
      2.82584906e-01 9.91028175e-02 3.99247259e-02 8.72401372e-02
      1.79367289e-01 2.82584906e-01 1.54189363e-01 2.82584906e-01
      7.64108896e-02 1.02359295e-01 2.82584906e-01 2.13511456e-02
      9.89245833e-04 6.24397881e-02 1.52952284e-01 4.84205671e-02
      2.82584906e-01 1.68324992e-01 2.82584906e-01 2.74469495e-01
      1.07249602e-04 3.20930470e-04 0. 1.34597104e-02 2.38739084e-02
      2.29634434e-01 1.08825631e-01 2.74469495e-01 1.08948283e-01
      1.60874406e-04 4.81395720e-04 5.00661437e-04 2.59123314e-02
      1.62336305e-01 2.74469495e-01 1.76767468e-01 2.74469495e-01
      2.74469495e-01 1.42122637e-02 2.64521148e-02 3.36692743e-02
      4.52490970e-02 7.57617727e-02 2.74469495e-01 1.20008580e-01
      2.74469495e-01 1.39594287e-01 2.13183966e-02 4.17441502e-02
      8.17008466e-02 2.60912061e-01 2.65807331e-01 2.74469495e-01
      1.19615719e-01 2.31303930e-01 6.34807274e-02 5.40300785e-03
      3.48001644e-02 2.89467275e-02 1.65051430e-01 1.74540535e-01
      3.05079728e-01 1.43336192e-01 1.59169912e-01 3.05079728e-01
      3.07546859e-03 1.02232555e-02 9.54045076e-03 4.69016731e-02
      4.37799692e-02 2.71132261e-01 9.87434015e-02 3.05079728e-01
      6.79150373e-02 7.29083316e-03 2.33487990e-02 6.63972273e-03
      1.64778705e-03 1.49234250e-01 3.05079728e-01 2.21924007e-01
      2.31402799e-01 3.05079728e-01 4.76730336e-03 1.35762403e-02
      1.59528374e-03 7.06729712e-03 4.42214608e-02 3.05079728e-01
      1.24964617e-01 3.05079728e-01 2.95908451e-01 6.00329079e-02
      5.21725900e-02 7.45980889e-02 5.28479293e-02 4.99431677e-02
      1.52934849e-01 3.51524316e-02 2.95908451e-01 2.54675537e-01
      9.01839510e-02 8.91044587e-02 2.00033024e-01 2.95908451e-01
      1.48668617e-01 1.89925551e-01 1.72227621e-02 2.05720156e-01
      2.95908451e-01 4.01024371e-02 1.50402533e-02 2.71472577e-02
      7.18092993e-02 5.31915296e-03 4.65484187e-02 4.32479009e-02
      2.95908451e-01 2.57257819e-01 7.08386004e-02 1.08159885e-01
      2.06726566e-01 2.95908451e-01 1.06795933e-02 4.23426218e-02
      1.78301707e-02 2.61686742e-01</_>
    <_>
      3.16161424e-01 1.40277550e-01 7.95323923e-02 1.27343357e-01
      1.44978017e-01 4.02417872e-03 6.76745491e-04 2.26156466e-04
      3.16161424e-01 3.16161424e-01 5.70817059e-03 7.55785150e-04
      3.13422293e-04 4.51159058e-03 2.59850465e-04 1.57137122e-03
      5.25125186e-04 3.16161424e-01 3.16161424e-01 1.04734682e-01
      2.42505800e-02 1.21231288e-01 3.16161424e-01 1.39448702e-01
      1.63313985e-01 1.46204270e-02 2.45819435e-01 3.16161424e-01
      8.34675040e-03 4.88802674e-04 6.97439944e-04 1.31521234e-02
      1.54302018e-02 1.58449411e-02 1.09535530e-02 3.16161424e-01
      2.93580323e-01 1.29522043e-04 3.87577835e-04 1.81584997e-04
      5.50158042e-03 5.30132558e-04 1.77146622e-03 7.12656556e-03
      2.93580323e-01 2.93580323e-01 0. 0. 3.90456896e-03 2.17318729e-01
      1.72990620e-01 1.21589519e-01 1.88859865e-01 2.93580323e-01
      2.93580323e-01 7.59172440e-03 1.54199265e-02 1.31952334e-02
      1.62579454e-02 2.26508896e-03 3.82981217e-03 1.13648186e-02
      2.93580323e-01 2.35268757e-01 1.30335502e-02 2.16669992e-01
      1.63473189e-01 2.93580323e-01 1.72612995e-01 3.49067114e-02
      1.36962220e-01 2.93580323e-01 1.26984358e-01 3.62645811e-03
      2.23740516e-03 1.48568181e-02 1.87730402e-01 1.53296262e-01
      2.98691511e-01 1.06236689e-01 1.89833105e-01 3.38946193e-01
      9.31374263e-04 1.18544813e-04 8.37774365e-04 6.07622089e-03
      1.79012474e-02 2.89073531e-02 4.06484902e-02 3.38946193e-01
      3.38946193e-01 0. 0. 1.73067965e-03 1.86039209e-02 1.03273377e-01
      1.93872482e-01 1.62360519e-01 3.38946193e-01 3.38946193e-01
      2.57944968e-02 0. 2.09443577e-04 5.96445762e-02 7.41641130e-03
      1.71885807e-02 1.15230985e-01 3.38946193e-01 2.80957937e-01
      4.24337909e-02 3.52204293e-02 1.85050387e-02 7.67500699e-03
      8.85424903e-04 1.79226580e-03 1.87882991e-03 2.80637890e-01
      2.03211203e-01 1.20886847e-01 2.80957937e-01 2.05039069e-01
      2.80957937e-01 3.05380635e-02 4.13466524e-03 4.89393389e-03
      1.33931369e-01 2.80957937e-01 8.82865712e-02 2.27237586e-02
      8.29163846e-03 6.67540133e-02 0. 1.14531606e-04 7.94372708e-02
      2.80957937e-01 2.80957937e-01 2.80957937e-01 2.41735339e-01
      2.08267912e-01 2.05715209e-01 6.60963496e-03 0. 5.74920811e-02
      2.80957937e-01</_>
    <_>
      3.00499052e-01 2.16391236e-01 2.15323806e-01 2.89386194e-02
      3.34178424e-03 0. 0. 0. 2.51970440e-01 3.00499052e-01
      1.18556485e-01 1.44429266e-01 2.05290411e-02 3.93784884e-03 0. 0.
      0. 3.00499052e-01 2.95370221e-01 1.05405577e-01 3.00499052e-01
      2.57601142e-02 1.72108069e-01 1.85693223e-02 6.48373365e-02
      7.57597201e-03 2.35183969e-01 3.00499052e-01 1.03326768e-01
      2.50160933e-01 1.49819907e-02 7.85502198e-04 3.96955200e-03
      1.61833819e-02 1.89399277e-03 3.00499052e-01 2.68915206e-01
      1.78182080e-01 2.24653840e-01 4.23125811e-02 2.46218499e-02
      1.13796266e-02 1.05597824e-01 4.98261899e-02 2.68915206e-01
      1.81975126e-01 7.69443661e-02 1.07142344e-01 5.01518250e-02
      1.03944890e-01 4.34335396e-02 2.68915206e-01 1.40313596e-01
      2.51002014e-01 2.68915206e-01 1.69815272e-01 2.68915206e-01
      5.53078130e-02 2.70818360e-02 5.73933823e-03 1.20040372e-01
      3.12002432e-02 2.68915206e-01 1.05112620e-01 1.14048012e-01
      2.68915206e-01 1.49341166e-01 2.52436757e-01 2.01171748e-02
      2.68915206e-01 5.25355116e-02 1.03477903e-01 2.51654506e-01
      2.35651713e-02 2.01402262e-01 4.45271470e-03 1.87188655e-01
      2.99872160e-02 1.06343009e-01 2.77475510e-02 3.17258984e-01
      3.31942260e-01 2.38634367e-02 1.13908447e-01 4.04702034e-03
      5.77755738e-04 6.49791304e-03 2.64912061e-02 6.89995615e-03
      3.31942260e-01 3.31942260e-01 8.63658935e-02 1.77610412e-01
      2.05459688e-02 8.05694610e-02 1.85550768e-02 6.52692765e-02
      2.73856781e-02 3.27584654e-01 3.31942260e-01 8.92728195e-02
      1.07086547e-01 1.05289388e-02 7.96359126e-03 1.62447803e-03
      6.62280060e-03 4.59996983e-03 3.31942260e-01 3.06952417e-01
      9.06041861e-02 3.06952417e-01 3.04840170e-02 1.13978796e-02
      3.27326416e-04 1.38847670e-02 2.56161613e-04 2.88939089e-01
      1.33446634e-01 1.83673188e-01 3.06952417e-01 7.98240677e-02
      7.80090690e-02 1.53363403e-03 3.43782157e-02 1.09064288e-03
      7.62909576e-02 3.06952417e-01 2.43608609e-01 2.10726231e-01
      3.28603275e-02 1.60234945e-03 1.21666126e-04 5.94805679e-05 0.
      3.06952417e-01 2.13172242e-01 3.06952417e-01 3.06952417e-01
      6.95660040e-02 5.33033535e-03 4.86664358e-04 2.37922199e-04 0.
      1.35265544e-01</_>
    <_>
      1.25165880e-01 1.19831264e-01 1.15582764e-01 1.10233590e-01
      2.89051265e-01 3.31454128e-02 5.76648489e-02 4.75685522e-02
      1.18714884e-01 2.17634112e-01 7.07763955e-02 1.94135290e-02
      5.62062301e-02 1.47620216e-01 6.55348673e-02 2.89051265e-01
      2.89051265e-01 2.86331743e-01 7.34438449e-02 3.01110614e-02
      4.80581932e-02 5.82822673e-02 2.89051265e-01 4.58304062e-02
      2.89051265e-01 9.01635289e-02 1.12036690e-01 1.90392449e-01
      2.60074176e-02 1.64130852e-02 3.76178585e-02 1.47733688e-01
      5.24778143e-02 2.89051265e-01 2.89051265e-01 2.71991909e-01
      2.25271612e-01 8.63542227e-05 1.45873870e-04 5.15181688e-04
      1.92001667e-02 3.82173061e-02 2.53678501e-01 2.53678501e-01
      2.53678501e-01 2.53678501e-01 6.58353456e-05 0. 0. 5.58822416e-02
      4.12265062e-02 2.53678501e-01 1.97155312e-01 2.53678501e-01
      2.35516280e-01 2.45780665e-02 3.00456658e-02 6.35152357e-03
      3.91748957e-02 2.81370748e-02 2.53678501e-01 2.17001677e-01
      2.53678501e-01 2.53678501e-01 2.42052916e-02 8.64509493e-02
      2.85958275e-02 2.53678501e-01 5.93810268e-02 2.53678501e-01
      1.00634888e-01 2.53678501e-01 8.27467144e-02 1.88834252e-04
      1.02327322e-03 9.87841515e-04 7.49429464e-02 2.78984066e-02
      2.93114066e-01 1.33524016e-01 1.51907563e-01 1.78735912e-01
      2.49120183e-02 1.84897408e-02 3.31643899e-03 3.27566080e-02
      5.10429926e-02 2.93114066e-01 1.86029315e-01 2.81987160e-01
      1.89563632e-01 1.61382428e-04 5.46779600e-04 1.30632136e-04
      5.03020594e-03 4.34632897e-02 2.93114066e-01 2.93114066e-01
      2.47743890e-01 2.93114066e-01 1.65802594e-02 1.85766947e-02
      4.26904252e-03 2.89442483e-03 7.07179159e-02 2.93114066e-01
      2.93114066e-01 2.93114066e-01 2.67935544e-01 9.89662707e-02
      1.02756903e-01 2.03441717e-02 3.14958692e-02 2.47535910e-02
      2.67935544e-01 8.04549828e-02 2.67935544e-01 2.67935544e-01
      9.74239632e-02 1.89694181e-01 5.47464266e-02 2.67935544e-01
      1.67887211e-02 6.43982068e-02 1.44662037e-02 2.33844653e-01
      2.67935544e-01 6.61536232e-02 7.51255080e-02 1.77068431e-02
      1.12633631e-02 4.08133492e-02 2.67935544e-01 1.50491714e-01
      2.67935544e-01 2.67935544e-01 8.39579999e-02 1.56149685e-01
      3.99785191e-02 1.23742357e-01 4.02885303e-02 2.19317317e-01
      9.97468978e-02 2.67935544e-01</_>
    <_>
      1.56913325e-01 1.28771573e-01 3.26268673e-01 1.92457899e-01
      1.05256222e-01 2.97347177e-03 1.27898325e-04 4.27413688e-05
      6.72146901e-02 3.26268673e-01 9.88840684e-02 3.23211163e-01
      3.13773230e-02 3.18698175e-02 1.02514552e-03 2.14796532e-02
      1.94836706e-02 3.26268673e-01 6.58981204e-02 6.34671897e-02
      3.26268673e-01 1.82855740e-01 3.26268673e-01 6.78422824e-02
      1.85261652e-01 9.96663235e-03 4.30811122e-02 1.89152598e-01
      5.28674796e-02 3.02692920e-01 3.69931944e-02 6.32687584e-02
      1.78586915e-02 7.81162232e-02 1.52852517e-02 1.69230521e-01
      2.96802938e-01 8.06245301e-03 9.19265579e-03 3.63942352e-04
      3.49807739e-02 1.35434298e-02 2.04822794e-01 1.31478399e-01
      3.25955987e-01 7.48447925e-02 0. 0. 1.18358573e-03 1.84991002e-01
      1.82754666e-01 3.25955987e-01 3.10725003e-01 2.60901392e-01
      1.01861842e-01 4.55780188e-03 6.12843642e-03 7.97993387e-04
      1.07999608e-01 1.86371766e-02 1.30134568e-01 8.57662559e-02
      1.95434421e-01 4.54495922e-02 0. 0. 7.46180955e-03 3.25955987e-01
      1.61146760e-01 3.15803319e-01 2.07633883e-01 1.88162208e-01
      2.55742725e-02 5.75729785e-03 9.42105949e-02 3.43727805e-02
      3.15216452e-01 1.49330422e-01 3.15216452e-01 8.78284872e-02
      3.08576748e-02 3.38792354e-02 1.52590265e-03 3.02070957e-02
      7.36342650e-03 4.26077954e-02 3.33832614e-02 3.15216452e-01
      1.35528132e-01 4.28698063e-02 4.29870747e-02 0. 0. 0.
      1.98642045e-01 1.69397652e-01 3.15216452e-01 3.15216452e-01
      9.79301035e-02 2.29048178e-01 1.29867738e-04 3.88612272e-04 0.
      4.94098179e-02 2.23523267e-02 3.15216452e-01 3.15216452e-01
      3.15216452e-01 3.62535864e-02 1.24940081e-04 6.84169168e-03
      8.41311365e-03 1.31253570e-01 7.53656728e-03 3.42475027e-02
      3.41073349e-02 4.53612655e-02 2.83640847e-02 3.12350203e-05
      2.59647593e-02 5.05852364e-02 3.60765308e-01 3.95630114e-02
      1.65901575e-02 1.28643382e-02 4.05760743e-02 3.60765308e-01
      3.58414762e-02 2.64320914e-02 2.59760637e-02 6.80747554e-02
      4.80808754e-04 1.15039513e-01 1.79866463e-01 3.60765308e-01
      3.60765308e-01 1.53260529e-01 2.07467228e-01 2.74889529e-01
      3.60765308e-01 2.80814301e-02 4.70632949e-04 1.24824102e-04
      3.45071971e-01</_>
    <_>
      2.32515097e-01 1.06721401e-01 2.83085734e-01 2.83085734e-01
      2.46277407e-01 4.59854491e-03 0. 0. 1.86071858e-01 2.83085734e-01
      6.01440854e-02 8.29055756e-02 8.64027292e-02 4.76521403e-02
      3.16166523e-04 1.45952608e-02 3.17953601e-02 2.83085734e-01
      9.37326252e-02 2.38062534e-02 2.83085734e-01 2.83085734e-01
      2.83085734e-01 1.21186785e-01 2.83085734e-01 4.20430042e-02
      8.06544423e-02 2.14310750e-01 1.59870386e-02 1.03335083e-01
      6.37252256e-02 6.01230487e-02 1.13209346e-02 1.73393667e-01
      3.94926704e-02 2.12761894e-01 3.22271377e-01 1.68209681e-05
      5.03345545e-05 3.72604147e-04 3.13615613e-02 1.33760916e-02
      1.53069779e-01 2.25955412e-01 3.31708819e-01 1.05971687e-01 0. 0.
      1.77255808e-03 2.29458153e-01 1.91552222e-01 3.31708819e-01
      3.31708819e-01 2.03177527e-01 1.41869947e-01 2.52314512e-05
      9.05245822e-03 2.98118591e-03 1.08061075e-01 1.23665063e-02
      9.26498845e-02 1.12625256e-01 1.65396363e-01 8.08311626e-02 0.
      3.59078124e-02 2.95493249e-02 3.31708819e-01 1.41679794e-01
      2.62978733e-01 2.06719398e-01 1.17749467e-01 5.25039732e-02
      3.32840689e-04 5.10806032e-02 3.73295918e-02 1.33316740e-01
      1.52436063e-01 3.23589534e-01 1.36768684e-01 9.45697874e-02
      3.00586343e-01 2.35207408e-04 1.27839213e-02 3.85836069e-03
      8.08460079e-03 1.72059275e-02 2.73623556e-01 1.06463715e-01
      3.23589534e-01 7.38467053e-02 0. 0. 3.85439751e-04 5.51302657e-02
      1.17377512e-01 3.23589534e-01 2.62297571e-01 1.62439063e-01
      3.23589534e-01 0. 0. 0. 8.41912776e-02 1.50126861e-02
      2.52400517e-01 1.79511830e-01 3.23589534e-01 3.10265720e-01
      1.20523022e-02 3.04616820e-02 9.55032837e-03 7.61166066e-02
      2.94479891e-03 1.26431873e-02 1.06150284e-02 3.10265720e-01
      2.66068280e-01 4.81952429e-02 1.26660392e-01 1.26629531e-01
      3.10265720e-01 1.73773617e-02 1.91723295e-02 4.57841408e-04
      2.02283397e-01 3.10265720e-01 2.31686402e-02 2.03008242e-02
      6.17570290e-03 6.80368617e-02 0. 4.83537419e-03 1.25675211e-02
      3.10265720e-01 3.10265720e-01 1.36020049e-01 1.17271341e-01
      1.86298758e-01 3.10265720e-01 1.45139988e-03 0. 0. 3.10265720e-01</_>
    <_>
      3.21467876e-01 3.27607840e-02 9.29503590e-02 3.24609838e-02
      1.41553760e-01 1.73343520e-03 1.74294546e-04 6.66879700e-04
      2.94915289e-01 3.21467876e-01 2.82132719e-03 2.67369370e-03 0.
      5.64072281e-03 3.55678424e-03 5.29984832e-02 4.44634072e-02
      3.21467876e-01 3.21467876e-01 3.10012326e-02 7.01499283e-02
      4.99081351e-02 3.21467876e-01 6.35358095e-02 8.12800527e-02
      3.53353396e-02 3.21467876e-01 3.21467876e-01 4.13522311e-03
      3.72097455e-03 0. 2.11507659e-02 1.02493409e-02 1.17223181e-01
      1.13303967e-01 3.21467876e-01 2.23634556e-01 9.53033305e-06
      2.85182796e-05 3.15085519e-04 5.23741208e-02 5.25145642e-02
      2.82199502e-01 1.02236897e-01 2.82199502e-01 5.82819544e-02 0. 0.
      1.26034161e-03 1.27851307e-01 1.35165438e-01 2.82199502e-01
      1.78590521e-01 1.85472608e-01 2.38794044e-01 1.46551766e-02
      7.57048419e-03 5.74245378e-02 2.79390603e-01 1.54233128e-01
      2.82199502e-01 1.53061390e-01 2.82199502e-01 6.76799268e-02
      2.19827667e-02 1.13557270e-02 1.07395023e-01 2.82199502e-01
      2.19204396e-01 2.82199502e-01 4.48678955e-02 1.29586518e-01
      3.15474302e-01 2.64427927e-03 2.16552103e-03 7.65061332e-03
      1.09008454e-01 4.09378037e-02 5.29793762e-02 4.07112092e-02
      3.15474302e-01 3.15474302e-01 6.77891832e-04 1.03779172e-03
      2.93121208e-04 1.07002808e-02 2.63153971e-03 1.21001728e-01
      1.35588199e-01 3.15474302e-01 3.15474302e-01 7.14837632e-04
      3.22429813e-04 7.81792391e-04 2.35396321e-03 1.62997239e-04
      7.00376183e-03 3.36887985e-02 3.15474302e-01 3.15474302e-01
      2.03942531e-04 8.25224677e-04 6.85564766e-04 4.97221649e-02
      1.20187309e-02 3.15474302e-01 2.14665011e-01 3.15474302e-01
      2.11068243e-01 5.57276011e-02 2.90781371e-02 9.74514335e-02
      2.18946606e-01 5.12177795e-02 2.34021261e-01 1.79617867e-01
      2.88336396e-01 9.71203670e-02 8.79578143e-02 6.67374954e-02
      2.02906609e-01 2.88336396e-01 7.63905421e-02 8.16591084e-02
      3.35625522e-02 2.04972833e-01 1.69056028e-01 3.72495800e-02
      3.09820808e-02 4.08877730e-02 1.47079185e-01 2.33613048e-02
      2.88336396e-01 1.62499830e-01 2.88336396e-01 7.38427043e-02
      1.47736803e-01 2.88336396e-01 2.35535398e-01 2.88336396e-01
      1.13931028e-02 5.24183102e-02 1.28535638e-02 1.31471202e-01</_>
    <_>
      1.59102693e-01 1.78014860e-01 3.12541932e-01 3.12541932e-01
      2.26418346e-01 3.74726718e-04 2.43558417e-04 5.16801156e-05
      7.99920037e-02 3.12541932e-01 1.56590834e-01 1.91735074e-01
      6.61117807e-02 5.00572063e-02 1.84344966e-02 2.85113864e-02
      4.58737090e-02 3.12541932e-01 3.46365124e-02 8.30506012e-02
      3.12541932e-01 3.05674434e-01 3.12541932e-01 8.29859897e-02
      1.15654632e-01 8.35194439e-03 1.50917368e-02 1.35109723e-01
      7.30304047e-02 1.74921721e-01 8.98715481e-02 1.24359675e-01
      4.55118716e-02 5.10170422e-02 1.56240622e-02 1.41273633e-01
      2.03929305e-01 1.02516310e-02 1.14797801e-03 1.64323588e-04
      9.99837294e-02 1.99870735e-01 1.78295538e-01 1.08003899e-01
      2.85689235e-01 2.50901058e-02 0. 0. 0. 3.36670965e-01
      3.36670965e-01 3.36670965e-01 7.60190785e-02 4.85943444e-02
      4.52123210e-02 5.39865298e-03 1.26716099e-03 2.75801029e-02
      3.36670965e-01 1.49805844e-01 6.97512701e-02 2.88357679e-02
      8.28648061e-02 1.93835166e-03 0. 1.00537594e-02 1.41031861e-01
      3.36670965e-01 3.36670965e-01 1.81036428e-01 1.76826771e-02
      1.22070396e-02 1.55917201e-02 3.83642036e-03 5.63265830e-02
      4.51581627e-02 3.10569465e-01 2.55284727e-01 3.10569465e-01
      8.43036473e-02 3.78216021e-02 1.50367796e-01 1.69702321e-02
      3.62549499e-02 2.96888556e-02 7.99688250e-02 7.35443011e-02
      1.58780217e-01 7.65356198e-02 1.47999540e-01 1.07228473e-01
      9.35244534e-05 3.76073673e-04 2.60352273e-03 2.89295077e-01
      3.10569465e-01 3.10569465e-01 2.01620951e-01 1.87383115e-01
      3.10569465e-01 5.36739081e-02 2.99781766e-02 1.75353587e-02
      6.70367405e-02 6.02439344e-02 1.89769387e-01 1.73047185e-01
      3.10569465e-01 9.41818655e-02 3.57931405e-02 7.61496648e-02
      1.45138577e-01 3.15253824e-01 1.47906076e-02 7.17593299e-04
      5.96829178e-03 5.32555990e-02 1.38308685e-02 2.20968202e-02
      1.79527611e-01 3.15253824e-01 3.15253824e-01 1.53502420e-01
      2.40104478e-02 0. 2.30578287e-03 3.15253824e-01 1.35210484e-01
      2.25329041e-01 2.27636546e-01 1.10926218e-01 3.80257348e-04
      1.05260010e-03 1.19152591e-02 2.66860932e-01 6.22332767e-02
      9.61915925e-02 3.15253824e-01 3.15253824e-01 2.90537238e-01
      2.48979358e-03 0. 0. 3.60483155e-02</_>
    <_>
      2.72082776e-01 1.73377786e-02 8.18557758e-03 9.01896134e-03
      8.33110791e-03 1.16206985e-03 1.09784291e-04 0. 2.72082776e-01
      2.72082776e-01 2.72082776e-01 2.13351458e-01 1.16204098e-01
      2.45052110e-02 2.58003653e-04 3.96233117e-05 1.32414489e-05
      2.72082776e-01 2.72082776e-01 6.94717541e-02 1.51918158e-01
      4.62398604e-02 2.72082776e-01 2.31517311e-02 7.31895198e-05 0.
      2.72082776e-01 2.72082776e-01 2.72082776e-01 2.58994758e-01
      1.56704053e-01 2.39948723e-02 5.42843388e-03 1.58493189e-04
      5.29657736e-05 2.72082776e-01 1.99921176e-01 2.63948441e-01
      2.52992868e-01 1.16505004e-01 7.40055665e-02 4.67962474e-02
      1.18070722e-01 5.02289794e-02 1.68656871e-01 7.65282288e-02
      5.35902344e-02 7.69439489e-02 3.64407487e-02 2.27232501e-01
      2.30366170e-01 2.84810662e-01 1.54728547e-01 8.86886492e-02
      2.20113307e-01 2.84810662e-01 1.81737959e-01 1.38778538e-01
      4.21518572e-02 6.90311715e-02 9.55626369e-02 3.73799875e-02
      1.72334850e-01 1.34178385e-01 8.90299007e-02 6.71933219e-02
      1.20567255e-01 2.84810662e-01 2.51687586e-01 2.84810662e-01
      9.47565883e-02 1.24866061e-01 2.81426400e-01 2.53473055e-02
      1.10859588e-01 2.95595117e-02 2.81426400e-01 7.29001164e-02
      5.64899258e-02 4.88505103e-02 2.70884097e-01 2.81426400e-01
      2.15613037e-01 2.10092992e-01 1.11710563e-01 4.76489849e-02
      1.89296007e-02 1.41795026e-02 1.22316815e-02 2.81426400e-01
      2.81426400e-01 2.37132321e-04 4.96400316e-05 5.36370906e-04
      2.50781119e-01 4.71346490e-02 8.47349018e-02 7.32757673e-02
      2.81426400e-01 2.81426400e-01 1.45123690e-01 2.16877446e-01
      8.07313845e-02 7.88637325e-02 1.17363641e-02 2.11837217e-02
      1.83189400e-02 2.81426400e-01 2.53822476e-01 1.71931833e-01
      1.21192068e-01 9.14910659e-02 2.73737349e-02 1.42786196e-02
      8.75287130e-03 1.62095693e-03 2.37511292e-01 2.53822476e-01
      1.48617744e-01 1.60848349e-01 1.50560364e-01 2.53822476e-01
      5.14491573e-02 3.23129594e-02 6.32144604e-03 2.35374004e-01
      2.53822476e-01 2.20335945e-01 2.53822476e-01 1.12907186e-01
      8.54129493e-02 2.28362012e-04 0. 0. 2.53822476e-01 2.53822476e-01
      2.53822476e-01 2.53822476e-01 1.65075019e-01 1.32442698e-01
      3.37150239e-04 1.79416587e-04 5.99580271e-05 2.53822476e-01</_>
    <_>
      4.01420407e-02 3.97822000e-02 1.42068595e-01 1.22955821e-01
      2.51614571e-01 5.08652218e-02 5.24853766e-02 7.95699470e-03
      3.25206257e-02 2.51614571e-01 1.17053449e-01 2.51614571e-01
      1.96555272e-01 9.83573571e-02 1.21706910e-03 5.93444420e-05 0.
      2.51614571e-01 2.04804599e-01 1.75047085e-01 2.39523172e-01
      2.42308453e-01 2.51614571e-01 1.05987206e-01 4.64989506e-02
      1.16860218e-01 2.00758398e-01 2.51614571e-01 1.94478571e-01
      2.51614571e-01 2.51614571e-01 1.63845688e-01 5.49786491e-03
      8.90166557e-05 1.58839615e-03 2.51614571e-01 3.07400227e-01
      7.44786859e-02 7.82861412e-02 8.35940391e-02 4.22625169e-02
      3.94042989e-04 3.13350261e-04 1.04716157e-04 3.07400227e-01
      3.07400227e-01 1.48397371e-01 5.14140166e-02 1.63095891e-01
      3.07400227e-01 8.03118758e-03 4.70025465e-04 1.57074246e-04
      2.76895821e-01 3.07400227e-01 3.99384126e-02 7.18312636e-02
      5.52508458e-02 3.16973329e-02 1.72694738e-03 4.82985524e-05
      1.58264507e-02 3.07400227e-01 3.07400227e-01 3.72881442e-02
      1.31162927e-02 4.23172070e-03 3.07400227e-01 3.23298969e-03
      1.93194166e-04 5.82205206e-02 2.76534736e-01 1.94345310e-01
      1.42402187e-01 1.36521831e-01 1.51088417e-01 1.48201853e-01
      4.17867973e-02 1.48059530e-02 8.31631050e-02 1.98844790e-01
      2.46252090e-01 2.35396415e-01 2.14914724e-01 2.39477530e-01
      1.19868405e-01 4.15640092e-03 1.27898129e-05 1.13037578e-03
      2.46252090e-01 2.46252090e-01 7.59448260e-02 2.46252090e-01
      2.39740670e-01 1.06815308e-01 3.39004882e-02 6.62297010e-02
      1.40973171e-02 2.46252090e-01 2.40861624e-01 1.52957916e-01
      2.46252090e-01 2.46252090e-01 1.47520483e-01 4.22318093e-03
      4.42731049e-04 1.47952931e-04 2.15047404e-01 2.92686641e-01
      5.04559726e-02 3.42638642e-02 4.28346954e-02 3.13314125e-02
      2.57785320e-02 5.13536483e-03 4.38648239e-02 2.92686641e-01
      2.92686641e-01 4.52542969e-04 4.44354111e-04 1.27220945e-02
